в 1.650145 -0.096927 0.257357 0.099589 0.069064 0.987021 0.264371 0.246425 0.969777 -0.321885 0.282634 -0.112377 1.033161 -0.242702 -0.642173 -0.408404 -0.791466 -0.527861 -0.356438 -0.371947 0.838732 1.306135 1.022502 -0.418756 0.540207 0.453174 0.974368 -0.235454 0.161363 0.297203 0.545415 -0.216418 -0.275390 -0.388533 0.012171 -0.852996 0.623783 -0.256307 0.511262 -0.954270 -0.282589 0.847345 -0.498904 -0.140407 0.627878 -0.965175 0.568050 -0.084196 -0.358624 0.439585
и 1.170854 0.353398 -0.878432 -0.224094 0.625253 -0.064554 -0.694652 -0.307981 0.718987 0.750810 -0.051299 -0.116777 0.035997 0.021901 -0.552868 0.169571 -1.462198 -0.707267 -0.714884 -0.458521 0.126828 0.553435 0.231500 -0.408608 0.085165 0.671100 0.127159 -0.156595 0.049959 0.249116 -0.617475 0.277601 -0.415305 0.063463 -0.469047 0.404020 0.123369 0.723236 0.485241 -0.659200 0.030899 0.042668 -0.674036 -0.370323 0.142427 -0.836657 0.580633 0.027731 0.451038 1.130492
с 0.765136 -0.064029 0.003798 0.483436 0.423177 0.787552 -0.594182 -0.237040 0.838784 -0.526059 -0.372840 -0.938695 0.527168 -0.099632 -0.702980 -0.888375 -1.420465 -0.761465 -0.601057 -0.082297 0.568908 0.775084 0.427567 -0.343802 -0.127338 -0.210303 0.432130 -0.893571 0.502358 0.294925 -0.355270 0.026880 -0.344197 0.140456 -0.343321 -0.210086 0.531411 0.350750 0.163137 -0.604344 -0.075184 -0.334780 -1.082731 0.100737 -0.247702 0.228011 0.555315 0.225707 0.473314 0.280384
на 0.638857 0.526879 -0.117053 0.094524 0.007003 0.469503 -0.223562 0.250968 0.914704 0.322615 0.122294 0.189749 0.237447 -0.209027 -0.312931 -0.400317 -0.830237 -0.444443 -0.368744 -0.662043 0.614615 0.861439 0.561468 -0.401339 0.169925 0.484428 0.394979 -0.155375 0.459017 0.024801 0.238187 0.233170 -0.162350 0.829067 -0.029892 -0.001780 0.404787 0.371594 0.336167 0.095040 -0.498844 0.826748 -0.420762 -0.015757 0.166157 -0.797184 -0.274426 -0.611483 0.530757 0.386159
по 0.670537 0.251052 -0.070024 0.249438 0.064960 0.320779 -0.228169 0.333429 0.704281 0.454613 0.054896 0.030898 0.123992 0.038338 -0.395316 -0.120822 -0.633325 -0.238823 -0.097088 -0.432528 0.214676 0.479827 0.468879 -0.234001 0.139971 0.540585 0.268609 -0.040983 0.224367 0.111083 0.095743 0.398152 -0.106760 0.636489 -0.204716 -0.169778 0.466280 0.191894 0.249758 -0.276466 -0.138306 0.519450 -0.222085 0.051335 0.162183 -0.558756 -0.118826 -0.176125 0.261742 0.395622
году 0.276463 0.215039 0.469072 0.224780 -0.258307 0.840777 0.094751 -0.014752 0.847060 -0.403190 0.040257 -0.241629 0.635437 -0.331880 -0.122559 -0.707774 -0.435573 -0.287977 -0.341115 -0.392359 0.902970 0.990543 0.557003 -0.534352 0.136876 -0.211999 0.743240 -0.317792 0.520920 0.141648 0.575263 -0.251397 -0.035540 0.386294 0.228235 -0.519102 0.599570 -0.020809 0.063873 -0.169424 -0.313692 0.587253 -0.557242 0.063909 -0.097830 -0.302412 -0.122145 -0.340086 0.173285 -0.249750
года 0.277134 0.184240 0.249306 0.355001 -0.325747 0.505790 0.031445 0.485158 0.592932 -0.038993 0.076833 -0.115814 0.128808 0.005447 -0.384748 -0.422223 -0.478280 -0.250071 0.035664 -0.375120 0.241235 0.429236 0.476938 -0.096367 0.135606 0.239387 0.261982 -0.349078 0.294209 0.003444 0.478016 0.325526 -0.132169 0.732467 -0.018920 -0.307848 0.537672 0.038329 0.076238 -0.094347 -0.153378 0.247628 -0.281482 0.026613 0.078626 -0.289703 -0.537251 -0.228258 0.378819 -0.096356
не 0.738058 0.432366 -0.604834 -0.052152 0.270055 0.061782 -0.412939 -0.008710 0.603183 0.777230 0.025092 0.202742 -0.048977 -0.176287 -0.222569 0.099456 -0.841790 -0.485638 -0.457626 -0.375228 0.219034 0.518640 0.228619 -0.234444 0.088908 0.728850 0.128681 0.217466 0.137859 -0.170238 -0.084092 0.304117 -0.311632 0.528113 -0.022081 0.079022 0.166257 0.565057 0.438095 -0.224468 -0.334128 0.615074 -0.320454 -0.323191 0.168721 -0.874474 0.183838 -0.455777 0.456870 0.706632
а 1.003121 -0.173062 -0.288548 0.164968 0.563559 0.234542 -0.636098 -0.158343 0.550794 -0.055551 -0.200068 -0.379914 0.299160 0.032520 -0.555482 -0.302231 -1.231150 -0.538280 -0.477948 0.051067 0.225275 0.491544 0.364062 -0.327960 -0.054478 0.070031 0.231437 -0.529149 0.117641 0.268716 -0.618008 0.116831 -0.292615 -0.348459 -0.386020 0.072043 0.251011 0.418272 0.215621 -0.632022 0.207552 -0.231117 -0.637649 -0.084608 0.082797 -0.163683 0.681642 0.354781 0.148395 0.531059
был 0.367220 0.435339 -0.071800 0.041836 -0.301330 0.335922 -0.049443 0.308706 0.841475 0.392569 -0.175985 0.107325 0.041998 -0.201112 -0.104022 -0.262403 -0.705908 -0.187495 -0.495445 -0.417193 0.450800 0.721188 0.394844 -0.458322 0.000047 0.147550 0.188907 -0.154698 0.282650 -0.118852 0.315554 0.158285 -0.132587 0.781078 0.138508 -0.080964 0.365021 0.337087 0.119557 0.059611 -0.233817 0.477864 -0.434566 -0.164901 0.141424 -0.623342 -0.294409 -0.324679 0.493034 0.324667
его 0.552641 0.539204 -0.551465 -0.014777 0.007938 0.193156 -0.275359 0.153310 0.764413 0.742196 -0.046875 0.229252 -0.059979 -0.296941 -0.114081 -0.016647 -0.909934 -0.333773 -0.501198 -0.525763 0.436901 0.682575 0.315456 -0.344712 0.056904 0.385890 0.213857 0.113597 0.342447 -0.189113 0.150601 0.245811 -0.316090 0.674089 0.032487 0.044153 0.142526 0.561942 0.269404 -0.078740 -0.259567 0.675753 -0.543242 -0.234361 0.031075 -0.842960 -0.017617 -0.493856 0.617082 0.562170
д 0.788805 -0.538596 0.008025 0.187094 0.573359 0.651942 -0.276891 -0.396048 -0.001419 -0.573578 -0.611138 -0.830173 0.606084 -0.008192 -0.396362 -0.581635 -0.756492 -0.310065 -0.423278 0.406379 0.383678 0.223321 0.210703 -0.099559 -0.066194 -0.498571 0.339190 -0.539475 -0.101149 0.184741 -0.261240 -0.470651 -0.186967 -0.872891 -0.061488 -0.444569 0.145420 0.045589 -0.050329 -0.802351 -0.010808 -0.469741 -0.744206 -0.042567 -0.117179 0.562091 0.964756 0.510895 -0.274718 0.242937
от 0.431080 0.186021 -0.206817 -0.137389 0.073692 -0.034559 0.025386 0.267083 0.449977 0.366490 0.169354 0.124498 -0.070310 -0.159282 -0.363604 0.362331 -0.366734 -0.258324 0.099893 -0.260109 0.088866 0.298890 0.173222 -0.192128 0.047043 0.626780 0.171888 -0.075855 0.112623 0.151366 -0.039529 0.196999 0.020135 0.248637 -0.108059 -0.006686 0.009580 0.004786 0.158581 -0.163491 -0.016906 0.377629 -0.006760 -0.069171 0.161566 -0.734106 -0.035722 -0.141523 0.133374 0.320366
1 0.804094 -0.545066 0.131472 0.209736 0.514782 0.781540 -0.173350 -0.366735 -0.002404 -0.687068 -0.565474 -0.864940 0.724341 -0.046446 -0.436019 -0.650637 -0.627638 -0.278389 -0.356429 0.437926 0.424484 0.251180 0.265089 -0.076718 0.012293 -0.510235 0.422787 -0.543837 -0.078762 0.154631 -0.135219 -0.523667 -0.162777 -0.895608 -0.050719 -0.565964 0.201694 -0.041898 -0.043170 -0.833588 -0.077620 -0.397743 -0.671307 -0.050439 -0.083777 0.554864 0.944930 0.468155 -0.331918 0.203598
из 0.559016 0.201179 -0.403997 0.048287 0.153436 0.168044 -0.281697 0.013010 0.440320 0.325753 -0.001705 -0.003341 0.039405 -0.197933 -0.310024 -0.005997 -0.719060 -0.361840 -0.322884 -0.230722 0.289302 0.396322 0.285741 -0.222821 0.037170 0.336716 0.132843 -0.018271 0.143097 0.024399 -0.124028 0.156674 -0.281300 0.167425 -0.125946 0.053374 0.138329 0.241902 0.286171 -0.200787 -0.092751 0.256803 -0.421145 -0.100092 0.029168 -0.546763 0.193731 -0.220922 0.331684 0.399575
он 0.698707 0.250245 -0.276852 0.021525 0.059734 0.230019 -0.215418 0.133767 0.704926 0.504588 -0.023740 0.099737 0.123624 -0.030263 -0.212430 -0.057135 -0.684111 -0.236337 -0.396643 -0.343978 0.335181 0.516924 0.376810 -0.269256 0.043831 0.369825 0.255265 0.022381 0.181105 0.024422 0.099594 0.190263 -0.203826 0.432213 -0.047475 -0.065187 0.265016 0.339123 0.303309 -0.286841 -0.138318 0.453019 -0.363323 -0.160025 0.175278 -0.609188 0.116277 -0.200156 0.258343 0.494492
к 0.857319 0.088757 -0.398182 0.004867 0.289699 0.165614 -0.349362 -0.029885 0.582038 0.339536 -0.103133 -0.077384 0.105937 -0.104981 -0.378757 0.000042 -0.927728 -0.395539 -0.321726 -0.237818 0.218756 0.473889 0.310323 -0.235883 -0.026119 0.370434 0.284283 -0.113660 0.139279 0.103933 -0.265283 0.178418 -0.268655 0.043775 -0.214756 0.059154 0.192084 0.327072 0.277488 -0.430961 -0.023844 0.229226 -0.450721 -0.117902 0.132048 -0.508721 0.357600 -0.004024 0.175503 0.486344
как 0.688867 0.300777 -0.481757 -0.145399 0.187371 -0.109395 -0.211236 0.002095 0.450475 0.603293 0.218661 0.232477 -0.050717 -0.090275 -0.236938 0.238149 -0.571627 -0.353701 -0.191403 -0.344956 0.125460 0.405513 0.237031 -0.114080 0.112110 0.622922 0.143175 0.161290 0.151195 0.040626 -0.153277 0.266213 -0.237341 0.340380 -0.110659 0.138256 0.100041 0.306040 0.359870 -0.169945 -0.157744 0.473710 -0.087896 -0.148957 0.171887 -0.833762 0.095181 -0.310923 0.223704 0.562710
или 0.480632 -0.222751 -0.006768 0.097717 0.290171 0.400839 -0.109723 -0.222278 0.125696 -0.267838 -0.213266 -0.413663 0.338514 -0.038581 -0.263960 -0.253717 -0.470241 -0.248085 -0.204940 0.094816 0.213525 0.233774 0.148484 -0.068196 0.018753 -0.150181 0.271817 -0.265885 -0.001638 0.103885 -0.121330 -0.229231 -0.109183 -0.398595 -0.080544 -0.246347 0.130542 0.028199 0.088190 -0.472542 -0.032557 -0.146803 -0.377991 -0.045078 -0.044516 0.143288 0.489576 0.213552 -0.126802 0.209957
во 0.470108 0.198186 -0.020179 -0.075560 0.275612 0.134872 -0.296966 0.043335 0.583831 0.009766 0.027808 -0.034250 0.184146 0.035653 -0.251116 -0.286001 -0.736087 -0.363308 -0.138882 -0.256311 0.200419 0.353554 0.197323 -0.156533 -0.015739 0.255350 0.143699 -0.339485 0.288997 0.238654 -0.273033 0.150307 -0.180089 0.344219 -0.206150 0.240510 0.114171 0.187733 0.225951 -0.088923 -0.215716 0.197092 -0.178286 0.123822 0.150498 -0.219468 0.003289 -0.069049 0.377643 0.217036
за 0.274605 0.079295 -0.187970 0.042151 0.081560 0.109174 -0.072139 0.075279 0.235243 0.144568 0.091253 0.047735 0.067094 -0.064794 -0.128921 -0.019845 -0.325966 -0.147159 -0.082919 -0.227167 0.176285 0.223180 0.186901 -0.093408 0.056388 0.249799 0.119247 -0.011775 0.023993 0.052778 0.015937 0.125075 -0.158883 0.051827 -0.069500 -0.036205 0.122007 0.042140 0.185280 -0.070735 -0.050023 0.251189 -0.167950 -0.063520 0.052909 -0.305720 0.069323 -0.127944 0.079208 0.187093
для 0.424497 0.186744 -0.330929 -0.048188 0.162906 0.078468 -0.197260 -0.019482 0.368168 0.257186 0.044722 0.042050 -0.049607 -0.094191 -0.264254 0.049093 -0.532442 -0.278780 -0.140959 -0.237860 0.050684 0.295306 0.170426 -0.141637 0.024615 0.380829 0.089645 0.010741 0.107440 0.082356 -0.196363 0.230626 -0.113944 0.217424 -0.156435 0.131155 0.096484 0.198716 0.217401 -0.157759 -0.053118 0.191530 -0.179879 -0.071506 0.103997 -0.426304 0.155808 -0.052928 0.168101 0.358682
после 0.457862 0.351194 -0.206340 0.072903 -0.053437 0.342886 -0.107368 0.196200 0.655796 0.354729 -0.003128 0.120386 0.084822 -0.215650 -0.136237 -0.227609 -0.701477 -0.273072 -0.333590 -0.421733 0.425788 0.643600 0.383046 -0.330505 0.088645 0.233122 0.308322 -0.043475 0.246660 -0.055160 0.243867 0.162507 -0.194486 0.458518 0.048838 -0.109011 0.204748 0.276758 0.166497 -0.088133 -0.194395 0.557659 -0.419939 -0.092715 0.054126 -0.574995 -0.043338 -0.310098 0.391290 0.326282
но 0.411446 0.287863 -0.417528 -0.027166 0.222090 0.011432 -0.333645 -0.031552 0.386251 0.488630 -0.013556 0.099954 -0.077807 -0.106410 -0.130498 0.003198 -0.598328 -0.343818 -0.314748 -0.224290 0.138752 0.306144 0.107825 -0.176667 -0.001986 0.423720 0.004188 0.109251 0.129537 -0.118715 -0.127609 0.214573 -0.202727 0.379162 -0.055363 0.143971 0.064354 0.432002 0.274709 -0.065908 -0.171914 0.350227 -0.241604 -0.207437 0.040476 -0.519220 0.109491 -0.296834 0.341301 0.453027
до 0.323913 0.230891 -0.189310 -0.034853 -0.032150 0.089611 -0.054629 0.144792 0.414744 0.303983 -0.019523 0.109559 -0.050745 -0.140298 -0.126748 0.027162 -0.395025 -0.214872 -0.157579 -0.253741 0.174966 0.290153 0.157507 -0.166867 0.054668 0.366014 0.139346 0.017757 0.106150 -0.056075 0.073086 0.161878 -0.127267 0.308053 0.012006 -0.009068 0.127468 0.211483 0.135356 -0.099047 -0.160233 0.314264 -0.218351 -0.124940 0.123131 -0.458442 -0.110097 -0.251671 0.310759 0.229937
время 0.500434 0.165971 0.075792 -0.108546 0.186213 0.188558 -0.138343 0.093126 0.450338 -0.031557 0.093398 0.058272 0.230712 0.017504 -0.187855 -0.242253 -0.557050 -0.234923 -0.034962 -0.212449 0.210231 0.349122 0.220449 -0.140597 0.057243 0.266500 0.169155 -0.245324 0.223206 0.244351 -0.133372 0.092736 -0.135595 0.266269 -0.111128 0.126639 0.113473 0.056191 0.211002 -0.124286 -0.228510 0.354710 -0.073145 0.140931 0.191842 -0.283793 0.000623 -0.077659 0.199886 0.163924
н 0.564957 -0.398668 0.069540 0.073475 0.327307 0.422197 -0.133662 -0.072168 0.049046 -0.401293 -0.424497 -0.477717 0.370682 -0.088664 -0.247892 -0.295747 -0.412062 -0.179660 -0.279846 0.294943 0.246392 0.060736 0.214399 -0.037198 -0.022745 -0.239258 0.314357 -0.375072 -0.111752 0.120189 -0.170202 -0.362678 -0.065708 -0.823221 0.006445 -0.318266 0.092159 0.049067 -0.058952 -0.586290 -0.071555 -0.357678 -0.316003 -0.089659 0.026313 0.335039 0.565315 0.255682 -0.123120 0.100947
вод 0.436297 -0.389066 0.159500 0.110994 0.247710 0.558073 0.011538 -0.210554 -0.050305 -0.485521 -0.394482 -0.550769 0.489340 -0.080938 -0.190503 -0.405899 -0.246954 -0.097523 -0.198142 0.308110 0.313561 0.137183 0.186829 0.012581 0.043012 -0.394862 0.314622 -0.294862 -0.101695 0.066557 0.051792 -0.453474 -0.053181 -0.657321 0.078495 -0.483009 0.105698 -0.107718 -0.051956 -0.531977 -0.112283 -0.211242 -0.354445 -0.034688 -0.071604 0.403167 0.565925 0.261205 -0.283223 0.027038
под 0.579496 -0.332699 0.074880 0.087586 0.308275 0.444404 -0.137310 -0.058305 0.047401 -0.364200 -0.393247 -0.421907 0.379500 -0.069217 -0.226882 -0.306646 -0.373377 -0.137875 -0.270173 0.246344 0.271466 0.091865 0.216538 -0.042057 0.004299 -0.206197 0.317345 -0.339208 -0.083604 0.125861 -0.087836 -0.339061 -0.029289 -0.710879 0.023024 -0.332547 0.115926 0.046835 -0.033481 -0.506584 -0.116532 -0.232151 -0.306475 -0.073556 0.031101 0.275197 0.504211 0.189184 -0.153085 0.115357
при -0.130066 0.236132 -0.175364 -0.133331 -0.111932 -0.112036 -0.012679 0.112159 0.049721 0.275836 0.059584 0.186746 -0.170624 -0.017882 0.240787 0.257200 -0.045480 0.049228 -0.155090 -0.148100 0.007158 0.109104 -0.067673 -0.027950 0.007428 0.057714 -0.193461 0.078793 0.061110 -0.231417 0.070758 0.140085 -0.049013 0.287070 0.129860 0.112881 -0.048247 0.290403 -0.006373 0.133311 -0.119754 0.102624 -0.020554 -0.112966 0.097591 -0.216181 -0.144486 -0.165351 0.297822 0.104025
2 0.278202 -0.096637 -0.053625 0.078658 0.255492 0.122808 -0.224710 -0.222885 0.043202 -0.184621 -0.130967 -0.332192 0.232963 0.039620 -0.242871 -0.246208 -0.359934 -0.199322 -0.226382 0.078678 0.041667 0.128753 0.070189 -0.103623 -0.055787 -0.144824 0.086187 -0.261417 0.081617 0.101342 -0.289484 -0.027208 -0.181409 -0.201622 -0.214021 0.037127 0.078956 0.099195 0.008937 -0.288917 0.088173 -0.235913 -0.319873 0.010302 -0.066943 0.167808 0.384403 0.175404 0.004120 0.211669
о 0.493681 0.062959 -0.246437 0.025639 0.217803 0.103770 -0.270506 -0.065448 0.358504 0.137197 0.007014 -0.068840 0.096573 -0.024744 -0.255633 -0.034459 -0.596228 -0.264096 -0.277394 -0.106678 0.112135 0.367304 0.195295 -0.198481 0.019659 0.187164 0.103209 -0.122218 0.039083 0.105584 -0.175836 0.085085 -0.155486 -0.009917 -0.168881 0.056494 0.147044 0.226047 0.151017 -0.283220 0.063713 0.074916 -0.294313 -0.100305 0.082498 -0.305956 0.241313 0.075313 0.103343 0.334453
ширали 0.372893 0.021927 -0.058917 0.030514 0.060894 0.127575 -0.132426 -0.064182 0.246281 0.143928 -0.021343 -0.068871 0.191250 0.007940 -0.190433 -0.015576 -0.293679 -0.172978 -0.139413 -0.176403 0.127893 0.308296 0.107427 -0.202915 0.030910 0.123548 0.142170 0.023956 -0.031683 0.073094 -0.070858 0.021267 -0.088342 -0.061318 -0.133732 0.030838 0.133455 0.092430 0.136095 -0.248257 -0.022111 0.134184 -0.217782 -0.002089 0.093663 -0.201779 0.161763 0.065304 0.055981 0.256011
президент 0.174371 0.011685 0.212798 0.226756 0.000710 0.468728 -0.065692 -0.111142 0.411193 -0.355095 -0.019824 -0.305738 0.372873 -0.155029 -0.169708 -0.427311 -0.320579 -0.243272 -0.198709 -0.117401 0.458430 0.485990 0.262281 -0.214288 0.020137 -0.170743 0.394612 -0.275526 0.299297 0.106693 0.135959 -0.154435 -0.048179 0.103520 0.054189 -0.256112 0.319081 -0.005258 0.053531 -0.161376 -0.143954 0.120206 -0.407135 0.085974 -0.127636 0.018855 0.093159 -0.075044 0.103245 -0.123328
стал 0.105754 0.138201 0.132672 0.094469 -0.137459 0.368670 0.057043 -0.001745 0.384604 -0.066794 0.012070 -0.043852 0.223390 -0.141182 0.007832 -0.295352 -0.226310 -0.124980 -0.159754 -0.261851 0.438355 0.476602 0.259568 -0.250792 0.060604 -0.077641 0.347801 -0.080673 0.212009 0.007396 0.286131 -0.087866 -0.063898 0.190038 0.116792 -0.222000 0.250179 0.045274 0.034446 -0.079863 -0.165798 0.345810 -0.258672 -0.002812 -0.042891 -0.186736 -0.104159 -0.185238 0.115285 -0.077796
что 0.394425 0.226763 -0.311036 -0.064951 0.127070 -0.039513 -0.191729 0.051103 0.313602 0.426366 0.111425 0.172675 -0.040702 -0.035428 -0.151716 0.165812 -0.441585 -0.202485 -0.183036 -0.237160 0.045489 0.278343 0.173564 -0.112170 0.057116 0.402418 0.075382 0.094059 0.113372 -0.005241 -0.098263 0.185708 -0.136648 0.221582 -0.088235 0.124552 0.058952 0.269528 0.238483 -0.090827 -0.092558 0.276883 -0.108130 -0.116073 0.117976 -0.525953 0.066166 -0.176473 0.215396 0.381870
была 0.341827 0.242186 -0.294403 -0.055963 0.016498 0.082402 -0.076759 0.154030 0.344972 0.330709 0.048288 0.162907 0.010213 -0.177472 -0.091188 0.104350 -0.402888 -0.143952 -0.178852 -0.239435 0.187751 0.348169 0.188755 -0.098290 0.123705 0.262961 0.088306 0.083467 0.158497 -0.149217 0.072070 0.134761 -0.169553 0.291573 0.046233 -0.010273 0.093043 0.252212 0.153234 -0.046305 -0.189606 0.355737 -0.218514 -0.157854 0.125965 -0.457124 -0.023002 -0.272881 0.283618 0.281620
ком 0.310506 -0.343987 0.147568 0.128643 0.233293 0.447157 0.014995 -0.216201 -0.067519 -0.415202 -0.289225 -0.477806 0.404237 -0.004582 -0.160386 -0.366592 -0.223223 -0.088088 -0.132312 0.277906 0.240416 0.120145 0.108236 -0.002845 0.013314 -0.377127 0.198185 -0.254649 -0.056347 0.042474 0.021559 -0.352811 -0.045738 -0.463115 0.050430 -0.348964 0.104436 -0.109692 -0.042075 -0.408855 -0.040138 -0.199806 -0.306801 0.007065 -0.066229 0.365676 0.482036 0.268670 -0.244427 0.002422
я 0.221090 0.209639 -0.347265 -0.107721 0.132594 -0.182546 -0.178333 -0.068591 0.183062 0.398086 0.102904 0.142154 -0.114737 -0.020864 -0.075930 0.143710 -0.341602 -0.221910 -0.196982 -0.196934 -0.011344 0.184220 -0.002523 -0.114675 0.052592 0.352188 -0.007831 0.150196 0.041504 -0.048248 -0.125972 0.207728 -0.198709 0.245228 -0.105459 0.206953 0.012040 0.267344 0.227338 -0.030652 -0.069248 0.222760 -0.019971 -0.111586 0.038003 -0.441855 0.038858 -0.203101 0.219448 0.337910
где 0.490381 0.169913 -0.127893 0.009940 -0.017301 0.221521 -0.075535 0.080752 0.461609 0.214609 0.061841 0.089080 0.169226 -0.110104 -0.150531 -0.103674 -0.430812 -0.189638 -0.255115 -0.235333 0.322962 0.459122 0.291455 -0.185513 0.103086 0.215726 0.229278 0.013434 0.154510 -0.002154 0.155684 0.070530 -0.132899 0.244004 0.041851 -0.110722 0.171401 0.162102 0.223501 -0.141062 -0.168100 0.412489 -0.261115 -0.086008 0.122697 -0.456809 0.082658 -0.204379 0.135258 0.298487
ведущий -0.517230 -0.029238 -0.052888 0.046893 -0.092436 -0.296863 0.090158 -0.043664 -0.372699 0.043579 0.063143 0.138537 -0.294609 0.043082 0.264525 0.247422 0.537501 0.280174 0.235673 0.196496 -0.313685 -0.397482 -0.285908 0.126784 -0.165235 -0.135078 -0.309733 0.277632 -0.196584 -0.148784 -0.047103 0.044072 0.161668 0.030653 0.066502 0.196146 -0.224285 -0.044606 -0.168370 0.339529 0.123269 -0.174991 0.283206 0.042154 -0.086220 0.297390 -0.105403 0.010182 -0.124932 -0.249791
т -0.065958 0.029573 -0.006765 -0.158871 0.125114 -0.315114 -0.196824 -0.042716 0.090960 0.033250 -0.018532 0.058196 -0.066066 0.097305 -0.085263 0.003062 -0.132446 -0.087528 0.002465 -0.075376 -0.186597 -0.147013 -0.044989 0.011893 -0.094685 0.009585 -0.078479 -0.165892 0.025838 0.043638 -0.376829 0.058032 -0.004865 0.028608 -0.132454 0.355864 -0.083069 0.084185 0.018337 0.074729 0.009363 -0.298369 0.084480 0.065988 0.067455 0.109258 -0.103114 0.074572 0.248822 0.043833
м 0.370630 -0.128341 -0.013330 0.186481 0.265223 0.179213 -0.346393 -0.105900 0.290561 -0.239787 -0.086005 -0.285454 0.197747 0.034407 -0.297229 -0.258339 -0.593717 -0.261663 -0.206050 0.094717 0.120905 0.290336 0.170682 -0.180459 -0.053835 -0.092713 0.100095 -0.378386 0.122841 0.175111 -0.332530 0.025329 -0.104561 -0.163557 -0.212247 0.009328 0.197902 0.165231 0.037608 -0.273161 0.132414 -0.174983 -0.334976 0.033021 -0.016145 0.054639 0.299835 0.244866 0.085069 0.131648
пер 0.321686 -0.244378 0.014602 0.189297 0.272163 0.293712 -0.244628 -0.204526 0.080157 -0.315804 -0.333966 -0.472403 0.213485 -0.007861 -0.228252 -0.352673 -0.508051 -0.195392 -0.216457 0.199033 0.200137 0.111107 0.046729 -0.083150 -0.098437 -0.279301 0.120361 -0.382503 0.053258 0.130782 -0.206786 -0.144719 -0.094176 -0.284368 -0.055440 -0.184645 0.112491 0.114112 -0.059567 -0.325808 0.056696 -0.311981 -0.438159 0.008099 -0.135563 0.385098 0.414562 0.264849 0.006079 0.081354
россии 0.190592 0.033184 0.013258 0.108571 0.024796 0.119865 -0.049682 0.108483 0.176909 0.067639 0.069456 0.005264 0.067360 -0.012336 -0.116261 -0.061294 -0.137620 -0.058375 -0.061163 -0.141855 0.098173 0.189290 0.134594 -0.086695 0.070400 0.156211 0.095731 -0.064338 0.051106 0.063496 0.067335 0.042653 -0.021563 0.128505 -0.056782 -0.105001 0.093731 0.022827 0.089275 -0.063077 -0.071931 0.184640 -0.107405 0.035129 0.047140 -0.149779 -0.010166 -0.023593 0.039585 0.107541
стихи 0.387405 0.100719 -0.200023 0.009048 0.118555 0.091526 -0.187660 -0.047151 0.264807 0.237448 -0.040445 -0.002025 0.085518 -0.020803 -0.170073 -0.021802 -0.386004 -0.222226 -0.213921 -0.172871 0.139273 0.283903 0.135913 -0.179041 0.014463 0.139262 0.124603 -0.003844 0.050905 0.011834 -0.051825 0.053931 -0.125936 0.062989 -0.085702 0.074715 0.053729 0.212558 0.151837 -0.188323 -0.052480 0.181457 -0.260378 -0.058754 0.074383 -0.300326 0.137113 -0.035075 0.134880 0.310481
3 0.523127 -0.280109 0.001635 0.094258 0.324006 0.398471 -0.136073 -0.223315 0.062938 -0.319476 -0.303489 -0.455035 0.405591 -0.000049 -0.255794 -0.330698 -0.497186 -0.190417 -0.268872 0.181691 0.264559 0.212576 0.170554 -0.092336 -0.001180 -0.232924 0.220691 -0.318132 -0.035199 0.138210 -0.110308 -0.253145 -0.140730 -0.455080 -0.052191 -0.272048 0.111544 0.018034 0.011270 -0.489379 -0.006355 -0.211596 -0.474968 -0.017711 -0.023214 0.246932 0.556641 0.285914 -0.155360 0.180308
александр 0.245467 0.152340 0.274221 -0.026887 -0.296119 0.237233 0.143383 0.030306 0.355040 -0.068463 0.022499 0.034123 0.167835 -0.067579 -0.083222 -0.310641 -0.216994 0.004247 -0.180975 -0.117318 0.169492 0.295631 0.146419 -0.195477 0.097536 -0.129118 0.108528 -0.131682 0.045727 0.093526 0.205322 -0.052096 0.060657 0.254509 0.156149 -0.159476 0.171604 -0.014154 0.018566 -0.016961 0.047103 0.190687 -0.024175 -0.019358 0.151998 -0.213274 -0.222168 0.031681 -0.002104 0.032076
были 0.474370 0.117879 -0.239581 -0.010831 0.185560 0.103505 -0.243139 -0.012921 0.287756 0.154750 -0.010541 0.019625 0.115330 -0.036838 -0.240320 -0.035076 -0.494260 -0.268400 -0.198516 -0.161819 0.171693 0.304420 0.191181 -0.154645 0.057259 0.224879 0.147955 -0.087622 0.069851 0.026327 -0.100017 0.061496 -0.144193 0.034776 -0.118335 0.084809 0.061969 0.212280 0.195592 -0.171099 -0.073130 0.188365 -0.254485 -0.062477 0.101157 -0.360510 0.178389 -0.083668 0.103338 0.325264
так 0.559028 0.241595 -0.409453 -0.119187 0.146382 -0.071767 -0.182822 0.021742 0.406463 0.505262 0.130308 0.183437 -0.058355 -0.098121 -0.197773 0.231347 -0.505366 -0.274793 -0.177617 -0.307466 0.094849 0.346191 0.176177 -0.101101 0.078817 0.471818 0.133988 0.088795 0.168504 0.002675 -0.121835 0.201232 -0.223599 0.258323 -0.082323 0.106541 0.069157 0.257964 0.254707 -0.166743 -0.105836 0.377867 -0.154828 -0.149609 0.130923 -0.686987 0.070352 -0.224222 0.206480 0.442225
фр 0.346250 -0.282124 0.076290 0.235028 0.287046 0.481129 -0.212179 -0.221342 0.109721 -0.439268 -0.402348 -0.620488 0.329002 -0.055755 -0.264236 -0.469095 -0.541098 -0.228206 -0.242305 0.221004 0.287113 0.206005 0.089119 -0.056060 -0.086076 -0.370528 0.206283 -0.434473 0.079437 0.122470 -0.136531 -0.237656 -0.091302 -0.323977 -0.030268 -0.303304 0.162313 0.089740 -0.043688 -0.392040 -0.039516 -0.343059 -0.521619 0.031184 -0.176649 0.470850 0.490424 0.262611 -0.017088 0.059879
это 0.365066 0.223809 -0.338816 -0.051945 0.178155 -0.068465 -0.230678 -0.027147 0.230421 0.427492 0.041573 0.115988 -0.053285 -0.036468 -0.126663 0.072381 -0.394106 -0.229428 -0.192212 -0.155913 0.078102 0.211039 0.089344 -0.045260 0.037540 0.387887 0.052354 0.117619 0.058766 -0.070055 -0.085496 0.203926 -0.171247 0.263595 -0.031033 0.070727 0.070673 0.277501 0.220287 -0.084700 -0.184472 0.262269 -0.104150 -0.119432 0.052372 -0.450080 0.078823 -0.236969 0.219202 0.384155
было 0.179154 0.209244 -0.101382 0.043502 0.037781 0.108712 -0.118966 0.103045 0.265474 0.191963 0.072479 0.082158 0.017810 -0.041962 -0.084750 -0.101146 -0.268374 -0.163051 -0.076188 -0.235288 0.158208 0.262984 0.179122 -0.114905 0.067057 0.230310 0.137199 -0.020259 0.154182 -0.032782 0.039160 0.107445 -0.075646 0.288186 -0.008471 0.015203 0.140356 0.171796 0.138102 0.023798 -0.171577 0.273193 -0.117453 -0.033227 0.008165 -0.316543 -0.097738 -0.270595 0.219314 0.186138
раз 0.185964 -0.123816 0.092450 0.095712 0.189236 0.201833 -0.032988 -0.172910 -0.134501 -0.346222 -0.119766 -0.345184 0.303922 0.069680 -0.134633 -0.256209 -0.093247 -0.044534 -0.108869 0.203697 -0.030348 0.004420 -0.013769 0.000873 -0.006874 -0.246794 0.078950 -0.208869 -0.008380 0.013046 -0.148091 -0.139998 -0.157723 -0.316962 -0.156178 -0.066164 0.012531 -0.072019 -0.036666 -0.230767 0.114382 -0.253668 -0.151364 0.004682 -0.033734 0.369881 0.398001 0.243213 -0.150523 0.109506
4 0.242787 -0.030751 0.012441 0.084537 0.107423 0.207468 -0.085871 0.005900 0.131522 -0.114460 -0.060871 -0.167024 0.155879 0.019019 -0.190908 -0.192449 -0.245651 -0.102260 -0.114575 0.015944 0.085135 0.109295 0.128643 -0.047192 -0.002283 -0.057505 0.073669 -0.156795 0.065802 0.033424 -0.050104 0.024941 -0.080612 0.003264 -0.098517 -0.070873 0.101501 0.016751 0.010234 -0.130567 -0.019144 -0.022049 -0.167191 0.051756 0.015185 0.037641 0.127251 0.085311 0.004159 0.105148
поэт -0.022904 0.071547 -0.122880 -0.052300 -0.012331 -0.147838 -0.123486 -0.117805 -0.008309 0.240904 0.043358 0.073672 -0.077645 -0.007631 0.043162 0.164197 -0.052806 -0.033663 -0.034935 -0.070070 -0.073731 -0.040891 -0.024429 -0.046975 0.025483 0.039318 -0.103333 0.108595 0.014615 0.053654 -0.110488 0.052084 0.022392 0.103739 -0.059406 0.144205 -0.080027 0.084156 -0.007176 0.074325 0.113187 -0.074338 -0.014402 -0.034224 -0.049601 -0.124619 -0.071157 -0.051160 0.098834 0.087049
президента 0.038351 0.069195 -0.062743 -0.067285 0.053914 -0.003937 -0.018394 -0.042082 0.027880 0.081811 0.038623 -0.052598 -0.027170 -0.009152 -0.051689 0.084903 -0.088490 -0.082454 -0.083070 -0.058831 0.015426 0.045672 -0.003756 -0.051749 0.041223 0.049360 0.008288 -0.041953 -0.033679 0.112410 -0.034428 -0.048236 0.025886 -0.037427 -0.029306 0.014655 0.001111 0.019382 0.011277 -0.066497 0.071074 -0.031883 -0.029718 -0.022877 -0.036218 -0.097324 0.004051 0.060903 0.017126 0.060903
спб -0.258869 -0.031701 0.062600 0.041502 0.080918 -0.079540 -0.133618 -0.078407 -0.044013 -0.158437 -0.096500 -0.201444 -0.023412 0.077566 0.008911 -0.150282 -0.028324 -0.049963 -0.008034 0.114417 -0.092509 -0.157925 -0.101122 0.115352 -0.126434 -0.214970 -0.119133 -0.217307 0.078192 0.076975 -0.223193 -0.008578 0.002625 -0.018583 -0.094416 0.178563 -0.043321 0.042202 -0.085794 0.057230 0.045300 -0.379733 -0.048183 0.107681 -0.164779 0.339260 0.010703 0.137095 0.122744 -0.101669
совместно 0.484508 -0.200761 -0.049954 0.222104 0.369292 0.473827 -0.315493 -0.251614 0.251349 -0.339141 -0.354366 -0.609586 0.344792 -0.048381 -0.344297 -0.453504 -0.769591 -0.358108 -0.348227 0.145812 0.307220 0.338086 0.141321 -0.117430 -0.082628 -0.248483 0.202645 -0.477426 0.131960 0.150282 -0.227657 -0.146807 -0.168112 -0.242632 -0.120868 -0.202717 0.191388 0.193319 0.045231 -0.463648 -0.033609 -0.326775 -0.624290 0.025618 -0.156869 0.317015 0.548331 0.249669 0.096104 0.214780
г 0.143985 -0.128564 0.026249 0.133317 0.133026 0.140713 -0.109065 -0.060390 0.108438 -0.181134 -0.093774 -0.235485 0.143097 -0.013103 -0.162634 -0.179083 -0.230061 -0.146457 -0.090379 0.074431 0.095204 0.075391 0.094310 -0.038698 -0.058052 -0.095984 0.091060 -0.206065 0.072118 0.073626 -0.126550 0.004116 -0.069447 -0.111173 -0.119079 -0.066006 0.115453 -0.007031 0.021847 -0.142718 0.020072 -0.139856 -0.170786 0.062701 -0.065679 0.141353 0.183878 0.123274 0.024463 0.017647
москва -0.309598 -0.070890 0.154563 -0.012847 -0.091536 -0.134610 0.070430 0.027359 -0.209080 -0.218293 -0.044871 -0.042451 -0.061037 0.034551 0.042369 0.029312 0.329380 0.200418 0.147497 0.090701 -0.137851 -0.233965 -0.105831 0.141074 -0.053250 -0.218485 -0.102801 -0.041006 -0.013858 -0.045541 -0.040254 -0.066103 0.100633 -0.080358 0.010597 0.026503 -0.133919 -0.162792 -0.143250 0.144382 0.066034 -0.217247 0.149319 0.034985 -0.043527 0.231983 -0.075529 0.057501 -0.082354 -0.216458
х 0.017582 0.012153 0.174172 0.088430 -0.078182 0.090270 0.104188 0.021081 0.046763 -0.189986 -0.031657 -0.069783 0.106469 -0.046406 -0.122150 -0.066298 -0.054354 -0.025006 -0.083916 -0.036049 0.078735 0.075693 0.067291 0.035245 -0.023653 -0.068902 0.024109 -0.111205 0.050317 0.005689 0.120842 0.005385 -0.013832 0.054814 -0.059223 -0.058791 0.053013 -0.069207 0.009172 0.026963 -0.007029 -0.019110 -0.070477 0.035700 -0.025484 0.056205 -0.101046 0.008123 -0.014842 -0.058126
э 0.119972 -0.238429 0.057374 0.037212 0.138258 0.103297 -0.017719 -0.103749 -0.104668 -0.222536 -0.261273 -0.247603 0.091132 0.016024 -0.060643 -0.150270 -0.085216 -0.062708 -0.047375 0.218039 0.081760 -0.174129 -0.066042 0.042170 -0.059341 -0.228669 0.074179 -0.181753 -0.088093 0.088408 -0.082441 -0.179470 -0.036371 -0.374522 0.002908 -0.129811 0.018848 -0.037840 -0.090866 -0.235111 0.033497 -0.261894 -0.184472 -0.009191 -0.052705 0.346719 0.277508 0.156588 -0.105306 -0.028647
затем 0.391976 0.070922 -0.186508 -0.014396 0.209011 0.052986 -0.201891 -0.033297 0.253775 0.154372 0.009808 -0.016027 0.041919 -0.014018 -0.164087 -0.068100 -0.446007 -0.247624 -0.200661 -0.092226 0.098824 0.212975 0.138177 -0.155945 0.035071 0.215167 0.049221 -0.052781 0.043779 0.054835 -0.136782 0.073525 -0.120002 0.043204 -0.105872 0.068380 0.076551 0.213774 0.167035 -0.183755 -0.011337 0.116584 -0.192976 -0.110522 0.070776 -0.254983 0.181182 -0.041204 0.097057 0.260938
перед 0.504781 -0.119296 -0.157473 0.130991 0.303381 0.271824 -0.306567 -0.159812 0.235453 -0.129800 -0.230949 -0.369418 0.217355 -0.048133 -0.290606 -0.267082 -0.666424 -0.286193 -0.282664 0.040479 0.220278 0.280365 0.146125 -0.163077 -0.037532 -0.073711 0.172830 -0.280148 0.054878 0.102269 -0.239899 -0.025197 -0.154203 -0.203689 -0.148391 -0.095409 0.124051 0.198357 0.086499 -0.364030 0.022098 -0.158747 -0.505065 -0.045270 -0.058807 0.041099 0.462508 0.191273 0.051746 0.278227
смерти 0.228611 0.272283 -0.220652 -0.005037 -0.023747 0.114806 -0.061587 0.080330 0.348238 0.302088 -0.034161 0.111068 -0.026726 -0.168592 -0.001928 -0.065590 -0.426225 -0.135151 -0.250399 -0.278889 0.243393 0.359548 0.137805 -0.186182 0.040568 0.137562 0.149978 0.037979 0.130627 -0.066129 0.150402 0.104087 -0.136451 0.259482 0.029117 -0.019010 0.027984 0.212091 0.073422 -0.053081 -0.107883 0.324093 -0.283856 -0.095698 0.009130 -0.338249 0.003898 -0.195943 0.269772 0.245763
у 0.228236 0.063670 -0.190888 -0.024364 0.107914 0.050901 -0.064767 -0.014192 0.156272 0.105626 0.067133 0.065254 -0.025267 -0.017467 -0.123317 0.109933 -0.189191 -0.115084 -0.061689 -0.099342 0.083818 0.144505 0.127871 -0.022688 0.067141 0.170774 0.097266 0.038025 0.003551 0.018885 0.000708 0.053616 -0.066225 0.021875 -0.051715 0.008295 0.061818 0.027922 0.076195 -0.039934 0.004700 0.163034 -0.038269 -0.083359 0.062420 -0.203233 0.081312 -0.053808 -0.012179 0.139262
же 0.284412 0.051323 -0.084887 0.013325 0.068697 0.089096 -0.111049 -0.052121 0.155826 0.072511 -0.004540 -0.042326 0.110307 -0.026231 -0.134141 -0.030827 -0.280079 -0.170606 -0.131282 -0.081102 0.110793 0.211943 0.155459 -0.098862 0.027216 0.109785 0.105921 -0.059568 0.107941 0.052879 -0.036293 0.026188 -0.116208 0.047952 -0.055472 0.033004 0.101994 0.143842 0.082366 -0.144626 -0.019472 0.099183 -0.176685 -0.024481 0.028847 -0.205492 0.106835 -0.073304 0.052828 0.161798
умер 0.208869 0.080154 0.265952 0.160762 -0.049173 0.510611 0.000972 -0.033804 0.463731 -0.293946 0.009420 -0.169596 0.413409 -0.189246 -0.121397 -0.454154 -0.277808 -0.183620 -0.174601 -0.190243 0.539535 0.552566 0.326387 -0.289153 0.068495 -0.124015 0.431801 -0.209865 0.321541 0.101839 0.266409 -0.158354 -0.019203 0.168876 0.081985 -0.293436 0.352167 -0.009930 0.045253 -0.100550 -0.237023 0.327093 -0.358507 0.071796 -0.044672 -0.094885 0.004036 -0.187143 0.079783 -0.130991
2004 -0.050101 0.022354 0.083045 0.104438 -0.074203 0.092036 -0.035913 0.060347 0.082918 -0.092365 0.030696 -0.103500 0.021452 0.034194 -0.064517 -0.151624 -0.103631 -0.059178 0.015869 -0.045637 0.002560 0.006853 0.064672 0.008953 0.022324 -0.023240 0.002826 -0.156758 0.104800 0.029474 0.078946 0.064665 0.001075 0.151322 -0.029774 -0.055560 0.118760 0.004372 -0.042163 -0.015476 0.009868 -0.076490 -0.055058 0.046265 -0.055463 0.044474 -0.150163 0.005357 0.116820 -0.074681
автор -0.214818 0.001157 -0.032353 0.009121 0.004380 -0.090276 0.013750 -0.049138 -0.145600 0.052251 0.000360 0.050548 -0.132703 0.039560 0.121899 0.121309 0.166101 0.078586 0.099772 0.036524 -0.114912 -0.160394 -0.093073 0.042075 -0.046360 0.002531 -0.131700 0.081275 -0.082162 -0.007243 -0.037222 0.049868 0.053876 -0.025692 0.022857 0.111756 -0.065761 -0.012097 -0.006156 0.139766 0.016942 -0.069892 0.099042 -0.008699 -0.061242 0.120590 -0.055155 0.034501 -0.027787 -0.064499
власти 0.195418 0.046707 -0.092384 -0.023177 0.027741 0.015313 -0.003205 0.086840 0.143022 0.132958 0.087892 0.079460 0.009098 -0.065136 -0.104516 0.144632 -0.123427 -0.083418 -0.000467 -0.083922 0.038975 0.141800 0.110946 -0.073112 0.042916 0.217678 0.046862 0.009310 0.010975 0.040244 -0.005140 0.012118 -0.002679 0.027514 -0.005656 -0.011523 -0.010588 -0.013145 0.088139 -0.067509 -0.032458 0.169671 -0.028637 -0.035022 0.096579 -0.299958 0.017002 -0.056790 0.034061 0.134347
все 0.161624 0.160354 -0.137506 -0.022356 0.045506 -0.020125 -0.109495 0.009254 0.151196 0.264560 0.019783 0.136240 -0.043457 -0.018776 -0.008718 0.079314 -0.152107 -0.111535 -0.062579 -0.107534 0.009581 0.094616 0.052138 -0.018231 0.026556 0.257964 0.027728 0.109078 0.053885 -0.055852 -0.025509 0.103315 -0.054312 0.210708 0.018475 0.059109 0.024222 0.138118 0.087716 0.008588 -0.137203 0.222510 -0.003722 -0.062196 0.062423 -0.267004 -0.048930 -0.188341 0.155698 0.186476
ему 0.223213 0.178600 -0.279607 -0.022440 0.086768 -0.038338 -0.201259 -0.014744 0.203431 0.343935 -0.016518 0.046585 -0.071477 -0.013425 -0.067985 0.031187 -0.318298 -0.149719 -0.207315 -0.132369 0.067551 0.144934 0.043609 -0.110055 -0.025481 0.186896 0.025963 0.064821 0.079779 -0.066265 -0.077833 0.119838 -0.137907 0.209942 -0.051390 0.098772 0.015980 0.250788 0.148024 -0.064600 -0.051122 0.147526 -0.184689 -0.127107 0.010293 -0.289433 0.076045 -0.124727 0.198461 0.309702
им 0.307248 0.123623 -0.085340 0.006466 0.076703 0.097703 -0.064894 0.042872 0.228522 0.074149 0.007183 0.012938 0.088921 -0.053228 -0.107594 -0.069711 -0.290524 -0.138455 -0.108152 -0.110418 0.147421 0.244154 0.141215 -0.109364 0.092899 0.132957 0.128885 -0.039401 0.100652 0.022209 0.005224 0.034353 -0.078251 0.092741 -0.025863 -0.013530 0.100641 0.133215 0.120293 -0.049572 -0.086721 0.185915 -0.136924 -0.035637 0.061894 -0.223221 0.049576 -0.101952 0.082966 0.167159
например 0.295717 0.153191 -0.242561 -0.031538 0.084963 0.044018 -0.116409 0.015710 0.247859 0.247711 0.059136 0.097650 -0.048468 -0.063937 -0.159466 0.100832 -0.319054 -0.177897 -0.110020 -0.199481 0.070053 0.204685 0.141873 -0.068547 0.055380 0.267619 0.103860 0.046511 0.076654 0.009745 -0.038839 0.117785 -0.082291 0.174930 -0.047292 0.036718 0.068364 0.105682 0.127184 -0.042970 -0.041826 0.256194 -0.099779 -0.094314 0.055817 -0.322318 0.054790 -0.103614 0.076736 0.222470
они 0.373535 0.135935 -0.245130 0.003707 0.175677 0.053309 -0.249997 -0.042267 0.248894 0.165645 -0.003046 -0.008579 0.068564 -0.019683 -0.199171 -0.067869 -0.449980 -0.258527 -0.209301 -0.152043 0.125513 0.251438 0.132019 -0.124206 0.039919 0.228882 0.099253 -0.060895 0.074419 0.016069 -0.118540 0.093519 -0.131237 0.113295 -0.095996 0.086213 0.080254 0.225829 0.176133 -0.135301 -0.097288 0.147844 -0.236125 -0.078997 0.054276 -0.309298 0.162420 -0.099200 0.126897 0.304692
также 0.411845 -0.006998 -0.115084 0.023285 0.135871 0.073633 -0.101730 -0.030420 0.208132 0.085022 -0.011791 -0.037450 0.091449 -0.025583 -0.170310 -0.015290 -0.362219 -0.149163 -0.132379 -0.075350 0.046646 0.192407 0.145683 -0.072973 0.029767 0.138264 0.132029 -0.053397 0.026988 0.084419 -0.104442 0.059184 -0.102605 -0.043668 -0.127016 0.000342 0.123811 0.082763 0.151341 -0.223341 0.002133 0.082445 -0.163616 -0.030457 0.087907 -0.175839 0.176368 0.022861 0.019162 0.202065
только 0.225218 0.099419 -0.139930 -0.028779 0.055347 -0.010099 -0.080375 0.011498 0.149263 0.198940 0.022390 0.123409 -0.018695 -0.058910 -0.046943 0.039853 -0.198524 -0.094301 -0.094050 -0.084960 0.076399 0.149278 0.079010 -0.047576 0.054522 0.212285 0.050440 0.069867 0.002162 -0.048683 0.014782 0.079816 -0.073755 0.139139 0.023512 -0.005754 0.034876 0.113356 0.102256 -0.042012 -0.103753 0.194524 -0.021198 -0.079563 0.074243 -0.291880 0.035959 -0.132141 0.070809 0.184710
анна 0.149713 -0.094107 0.024456 0.041874 0.037172 0.054617 0.023327 0.020197 0.041254 -0.019621 0.104746 0.006631 0.079876 0.024945 -0.035504 0.030817 -0.005289 0.003222 0.002328 0.049241 0.045600 0.076804 0.073848 0.006949 0.051281 0.024316 0.038844 0.020990 -0.047193 0.029532 0.016716 0.004662 -0.024129 -0.127798 -0.016519 -0.072982 0.025695 -0.045095 0.046786 -0.111890 0.029222 -0.003271 -0.017771 -0.032859 0.057046 -0.043962 0.131937 0.066316 -0.114475 -0.007522
михайлович 0.152898 0.093373 0.285880 -0.031496 -0.306841 0.180688 0.162781 0.011353 0.238712 -0.092964 0.004855 0.035685 0.118199 -0.037758 -0.041288 -0.259096 -0.109372 0.079181 -0.131706 -0.030876 0.075974 0.175293 0.071488 -0.144484 0.070163 -0.198497 0.026209 -0.111862 -0.019438 0.084446 0.182016 -0.069074 0.101741 0.182908 0.168619 -0.141526 0.123734 -0.049790 -0.025059 0.009028 0.112162 0.088838 0.042342 -0.017832 0.148212 -0.104066 -0.218270 0.105294 -0.070803 -0.009568
режиссёр -0.172493 -0.009470 -0.019295 -0.044792 0.029031 -0.089276 0.074511 -0.006458 -0.129431 0.081947 0.013958 0.117887 -0.119232 0.060241 0.132148 0.129147 0.150026 0.081149 0.089857 0.031472 -0.091180 -0.172125 -0.039556 0.097017 -0.007434 0.062317 -0.085276 0.093696 -0.099330 -0.002056 0.003926 0.054660 0.030270 -0.080174 0.037316 0.057561 -0.028267 -0.032488 0.002646 0.082755 0.011505 -0.021848 0.151860 -0.010040 -0.010368 0.044381 -0.086127 0.003180 -0.050038 0.017883
роль 0.042569 -0.031725 -0.016536 0.017871 0.047554 0.049703 0.033290 0.023500 0.018480 -0.043967 0.052112 0.037748 0.079035 0.009091 -0.008295 -0.034224 0.003976 0.004276 0.043603 -0.032327 0.075075 0.047193 0.059426 0.009752 0.030916 0.027285 0.066061 -0.008592 -0.018788 0.047475 0.003019 0.032717 -0.034746 -0.120078 -0.001562 -0.040715 0.051592 -0.049852 0.070648 0.012099 -0.010769 0.052517 -0.005652 -0.009054 0.047502 -0.014201 0.059024 -0.028171 -0.051836 0.000052
других 0.268169 0.143554 -0.266988 -0.114954 0.130202 -0.115362 -0.121062 0.003304 0.163041 0.264717 0.031744 0.044756 -0.079309 -0.005207 -0.147711 0.133181 -0.287782 -0.164067 -0.115231 -0.140647 -0.034126 0.079287 0.044616 -0.068279 0.032439 0.275413 0.015341 -0.000204 0.009741 0.054013 -0.134488 0.099866 -0.070361 0.098553 -0.131334 0.151014 -0.057823 0.176767 0.117898 -0.081145 -0.008768 0.076567 -0.073072 -0.097626 0.047080 -0.301475 0.075589 -0.046604 0.114103 0.286343
дружков -0.043734 0.018988 -0.068480 -0.108727 0.015035 -0.127128 -0.003517 -0.018384 -0.045240 0.086111 0.079983 0.050747 -0.079118 0.067317 0.045794 0.049506 0.010726 -0.008054 -0.036858 -0.051018 -0.039021 -0.085552 -0.074397 -0.039263 -0.011925 0.094378 -0.114787 0.072538 -0.016638 -0.012460 -0.064693 -0.004773 0.035078 -0.060108 -0.004314 0.094596 -0.056829 0.038478 0.029472 0.020344 0.006422 0.019306 0.059406 -0.018958 -0.010406 -0.029987 -0.018547 -0.013453 0.048653 -0.000890
её 0.262155 0.073565 -0.221562 -0.065325 0.151248 -0.050394 -0.206941 -0.053922 0.179935 0.209486 -0.016426 -0.007481 -0.017312 0.026710 -0.093859 0.011030 -0.332975 -0.151038 -0.188869 -0.114798 0.050077 0.112297 0.099378 -0.093938 0.009647 0.163654 0.029581 -0.062057 0.041273 0.057011 -0.178536 0.110141 -0.082748 0.033567 -0.143721 0.151259 0.026814 0.193384 0.120100 -0.092372 0.017145 0.028847 -0.113991 -0.058308 0.042725 -0.228373 0.099002 -0.012088 0.106607 0.262894
й 0.010531 -0.182403 0.099506 0.071762 0.190628 0.125385 -0.039948 -0.235010 -0.283961 -0.375356 -0.162692 -0.380655 0.238263 0.093227 -0.073373 -0.225854 0.033514 0.019055 -0.070778 0.285426 -0.096563 -0.140776 -0.118018 0.044473 -0.061003 -0.347691 0.013908 -0.213478 -0.035304 0.012361 -0.207174 -0.182550 -0.096014 -0.384962 -0.145177 -0.026428 -0.073630 -0.087619 -0.111496 -0.180597 0.150090 -0.383230 -0.121533 0.012220 -0.113979 0.502875 0.387206 0.295773 -0.174862 0.034292
однако 0.309151 0.156068 -0.218102 -0.022492 0.093608 0.059774 -0.144185 0.010701 0.268625 0.315973 -0.005398 0.080896 -0.010461 -0.096908 -0.075807 0.015747 -0.357253 -0.168510 -0.180576 -0.170502 0.141697 0.216267 0.106198 -0.103282 0.021229 0.219720 0.081752 0.056761 0.093149 -0.046306 -0.015764 0.089181 -0.139804 0.232210 -0.019145 0.014421 0.069459 0.226336 0.142839 -0.094453 -0.123541 0.248404 -0.161032 -0.098448 0.026416 -0.336104 0.050580 -0.172566 0.174425 0.231537
поэта 0.339421 0.049713 -0.134995 0.011183 0.056461 0.127670 -0.108280 0.004732 0.234230 0.149525 -0.028853 -0.010488 0.066780 -0.019033 -0.121212 -0.036158 -0.291173 -0.149777 -0.119724 -0.099323 0.118395 0.245945 0.150640 -0.124619 0.032780 0.121647 0.139871 -0.007479 0.039141 0.010307 0.001549 0.023444 -0.094141 0.048719 -0.042028 -0.019658 0.070842 0.122128 0.091919 -0.165707 -0.052439 0.185864 -0.187995 -0.033252 0.086305 -0.223989 0.133139 -0.003323 0.062734 0.175119
работал 0.322343 0.055650 0.024240 0.052093 0.004487 0.225415 0.020993 0.101932 0.266271 0.025226 0.059499 0.026585 0.187357 -0.065937 -0.103446 -0.131321 -0.207087 -0.124731 -0.099938 -0.166735 0.226344 0.311919 0.246539 -0.131328 0.105501 0.135616 0.239336 -0.022288 0.068912 0.039008 0.149823 0.006587 -0.043084 0.067563 0.031849 -0.154454 0.175632 -0.004932 0.109423 -0.120650 -0.137940 0.289321 -0.130654 0.005003 0.104348 -0.267452 0.043592 -0.117362 0.015303 0.115761
родился 0.147844 -0.055307 0.102652 0.041055 -0.044636 0.135668 0.094447 0.057676 0.059780 -0.121348 0.048843 -0.024564 0.119150 -0.020453 -0.074986 -0.089796 -0.009824 -0.030744 0.008806 -0.014411 0.077531 0.096492 0.131858 -0.018349 0.068921 0.017694 0.100284 -0.031123 -0.011297 0.000694 0.119170 -0.018197 -0.033036 -0.053784 0.024270 -0.141195 0.071133 -0.094557 0.045849 -0.113799 -0.039760 0.073197 -0.014933 0.003945 0.077976 -0.058246 0.014321 0.004903 -0.076817 -0.019031
российский -0.001399 0.064356 -0.153941 -0.053464 0.013570 -0.141078 -0.144498 -0.100231 -0.027757 0.236601 0.031945 0.046758 -0.084023 -0.011661 0.027743 0.153229 -0.056191 -0.025644 -0.052682 -0.048819 -0.046857 -0.031323 -0.039886 -0.022241 0.018374 0.043522 -0.069943 0.099618 0.018975 0.050850 -0.075928 0.036123 0.005587 0.064367 -0.075776 0.096956 -0.077829 0.090347 -0.021421 0.032326 0.101697 -0.041380 -0.049313 -0.037714 -0.088284 -0.132246 0.004102 -0.054145 0.082164 0.084877
ссср 0.149329 0.030111 -0.053239 -0.004631 -0.003196 0.045951 -0.063092 0.027088 0.113986 0.072798 0.006971 -0.020016 0.048708 -0.023203 -0.055637 -0.021812 -0.144785 -0.066661 -0.109349 -0.037321 0.066585 0.123715 0.085614 -0.065001 0.060621 0.027447 0.071839 -0.035963 0.032494 0.051248 0.040454 -0.028547 -0.036767 0.001525 -0.046413 -0.064242 0.055425 0.044880 0.015101 -0.092977 0.011656 0.037809 -0.117161 -0.019894 -0.001124 -0.137534 0.090867 -0.007583 0.021677 0.094365
стихов 0.059740 0.025196 -0.056199 -0.041875 0.041514 -0.054025 -0.056821 -0.101548 0.001532 0.045979 0.011653 0.011224 -0.041457 0.013266 -0.000459 0.005130 -0.073247 -0.042008 -0.030415 -0.007438 -0.020876 0.004890 -0.038740 -0.053749 -0.005445 0.005155 -0.054862 0.000789 -0.057501 0.008151 -0.058738 0.004988 -0.030742 -0.039890 -0.017322 0.073436 -0.047904 0.038070 -0.015270 -0.045402 0.022300 -0.055100 -0.039326 -0.004359 0.006574 -0.011912 0.080092 0.033163 0.018703 0.071906
1990 -0.021851 -0.054461 0.243793 0.143738 -0.044467 0.169438 0.090064 -0.043237 -0.006014 -0.316958 -0.045786 -0.180063 0.183786 -0.031627 -0.126426 -0.144028 -0.015836 -0.028387 -0.035758 0.028669 0.103410 0.058192 0.060064 0.022794 -0.007666 -0.164798 0.086677 -0.165077 0.055916 0.020701 0.109778 -0.075699 -0.000407 -0.030398 -0.019646 -0.158863 0.091078 -0.134716 -0.062938 -0.025100 0.016190 -0.104042 -0.112274 0.074663 -0.069751 0.174399 -0.028730 0.062226 -0.071850 -0.154163
2000 0.000328 -0.039542 0.136639 0.041982 -0.106904 0.101153 0.102677 0.075672 0.037950 -0.116652 0.034756 -0.014504 0.079319 -0.015504 -0.033087 -0.057082 0.044037 0.015296 0.014434 -0.027638 0.061307 0.051166 0.063802 0.002587 0.057080 -0.027798 0.086978 -0.037458 0.026512 0.000210 0.134672 -0.025382 -0.007765 0.024437 0.041046 -0.126368 0.068654 -0.068536 0.003358 -0.007947 -0.010692 0.049378 0.018123 0.003761 0.034437 0.008426 -0.094655 -0.030083 -0.016601 -0.104348
2003 0.108685 0.031145 0.175814 0.109151 -0.107858 0.275531 -0.008408 0.019824 0.217666 -0.158145 -0.019523 -0.148231 0.147535 -0.040545 -0.058580 -0.230828 -0.183544 -0.118945 -0.092787 -0.079932 0.156017 0.217307 0.159190 -0.096761 0.038506 -0.018249 0.194854 -0.188856 0.136937 0.053946 0.152677 -0.064495 0.005127 0.094424 0.013213 -0.171156 0.199305 0.003395 0.004249 -0.133728 -0.029905 0.067668 -0.144316 0.023768 -0.032912 -0.023229 -0.047974 -0.044950 0.060893 -0.031044
актёр -0.097804 -0.036094 0.050472 -0.048007 -0.021732 -0.118660 0.033025 -0.053003 -0.180516 -0.011911 0.022017 0.018508 -0.046141 0.012057 0.080364 0.058178 0.205699 0.099112 0.056496 0.017329 -0.045533 -0.078333 -0.094272 0.040991 -0.016465 -0.073237 -0.050677 0.037472 -0.021465 0.043254 -0.000346 -0.051286 0.069649 -0.069775 0.000101 0.029875 -0.083781 -0.110583 -0.025451 0.067584 0.044903 -0.072957 0.067708 0.022780 -0.033921 0.064541 -0.045943 -0.005938 -0.068594 -0.120632
вожди -0.260915 0.097335 -0.132815 -0.114490 0.039862 -0.280745 -0.051937 -0.103061 -0.169607 0.200978 0.016609 0.141014 -0.261268 0.061542 0.122903 0.191499 0.188510 0.088967 0.055368 0.028932 -0.209283 -0.237909 -0.244715 0.109442 -0.091919 0.088183 -0.257294 0.193403 -0.067523 -0.071465 -0.108378 0.054131 0.021395 0.070715 -0.005119 0.180898 -0.134598 0.099298 0.028965 0.167702 0.051030 -0.079671 0.139051 -0.053210 -0.047953 -0.003036 -0.121344 -0.038940 0.073961 0.016072
глава -0.030355 -0.132109 0.121690 0.088451 0.039840 0.125524 0.024972 -0.070013 -0.044314 -0.189288 0.002133 -0.127802 0.126338 0.012679 -0.026354 -0.079877 0.073277 0.012429 0.042553 0.056767 0.034720 0.032999 -0.001217 0.029805 -0.003841 -0.125018 0.053018 -0.077281 -0.003804 0.041275 -0.023330 -0.114956 0.027476 -0.149168 0.009515 -0.100302 0.038631 -0.110688 0.012122 -0.079515 0.022220 -0.068007 -0.053399 0.066663 -0.066770 0.183928 0.084956 0.098693 -0.102253 -0.085111
государства -0.063232 -0.095314 0.109955 0.034752 0.002532 0.107842 0.068384 -0.099170 -0.021423 -0.186781 -0.010710 -0.114770 0.101546 0.012287 -0.033797 -0.020318 0.066777 0.011511 0.066072 0.042791 0.049329 0.040802 -0.017997 0.011543 -0.008227 -0.128418 0.102317 -0.062301 -0.002648 0.037206 -0.053354 -0.128412 0.021931 -0.172882 0.031605 -0.083187 0.033339 -0.114870 0.029625 -0.094235 0.062359 -0.043181 -0.046866 0.040991 -0.040036 0.164900 0.082239 0.063168 -0.110261 -0.086254
конституции 0.026106 0.035845 0.035505 -0.045425 -0.044165 -0.029687 0.060316 0.103837 0.065535 0.027691 0.059469 0.070111 -0.019046 0.004199 -0.003139 0.068918 0.061624 0.027653 0.046567 -0.043385 -0.026105 0.018077 0.006511 0.000846 0.048362 0.092462 0.040117 0.021241 -0.014112 0.019132 0.056281 0.023180 0.001547 0.069442 0.013256 -0.032413 -0.001000 -0.037536 0.037222 0.020639 -0.005018 0.101674 0.070126 0.025116 0.052012 -0.098700 -0.078216 -0.033521 -0.026977 0.028249
лет 0.134857 0.084447 -0.005905 -0.026437 -0.056572 0.021217 0.051571 0.097340 0.164606 0.038107 0.094519 0.098528 0.026775 -0.057214 -0.064355 0.000204 -0.045108 -0.080614 -0.033449 -0.144991 0.065742 0.135450 0.103651 -0.061042 0.100795 0.149275 0.084405 0.039177 0.037431 0.012590 0.110862 0.054200 -0.004374 0.091695 -0.020664 -0.029616 0.054809 -0.015334 0.074738 0.000163 -0.088813 0.214625 0.005543 -0.025542 0.094086 -0.226106 -0.067000 -0.116353 0.012719 0.037280
несколько 0.252030 0.084109 -0.011531 0.053987 0.042656 0.112895 -0.014515 0.059742 0.160572 -0.008261 0.063719 0.027248 0.097749 -0.030580 -0.107142 -0.089450 -0.190551 -0.110064 -0.063840 -0.109313 0.088850 0.191876 0.125988 -0.085985 0.090440 0.105581 0.093900 -0.023927 0.061489 0.006878 0.043504 0.055641 -0.069650 0.085160 -0.062820 -0.027208 0.091540 0.036833 0.101422 -0.057682 -0.068789 0.160113 -0.093906 -0.020842 0.075001 -0.154464 0.036202 -0.084888 0.046562 0.132553
отец 0.019977 0.048208 0.015696 0.014879 -0.064482 -0.000619 0.065459 0.104252 0.052265 0.031582 0.095583 0.083194 0.007011 -0.011027 -0.020071 0.020950 0.026864 0.029258 0.012267 -0.097395 0.050890 0.056883 0.069631 -0.030997 0.077066 0.096173 0.019313 0.063504 0.017969 -0.003550 0.094954 0.067157 0.000799 0.108752 -0.009509 -0.042767 0.014208 -0.032522 0.046050 0.035158 -0.040218 0.169688 0.003469 0.030983 0.021077 -0.166431 -0.075664 -0.032641 0.002639 0.048570
русский -0.058528 0.058151 -0.095646 -0.080868 0.022129 -0.161042 -0.034128 -0.074282 -0.053568 0.142439 0.080558 0.108984 -0.099286 0.005446 0.083440 0.111549 0.066120 -0.034356 0.018017 -0.074484 -0.079723 -0.087210 -0.066385 -0.012406 0.028569 0.094406 -0.078014 0.091742 0.007707 0.018771 -0.082060 0.045123 0.028386 0.082158 -0.053049 0.126802 -0.080404 0.069486 0.008561 0.085279 0.019549 -0.019247 0.072158 -0.000645 -0.020859 -0.113100 -0.078650 -0.056187 0.049815 0.016163
своего 0.258444 0.023960 0.020951 0.042422 0.007693 0.151359 -0.018569 0.058968 0.234619 0.029936 0.004154 -0.018103 0.138268 -0.043471 -0.106813 -0.105320 -0.215194 -0.080350 -0.127768 -0.080453 0.154316 0.238630 0.172750 -0.101917 0.052221 0.067903 0.151827 -0.051545 0.060997 0.025330 0.076650 -0.012546 -0.058578 0.043197 0.010147 -0.094249 0.137264 0.036762 0.090522 -0.149770 -0.031744 0.121608 -0.141581 -0.047718 0.100205 -0.169666 0.067544 -0.024128 0.003458 0.127316
своей 0.255682 0.148097 -0.066618 -0.029164 -0.039366 0.114236 0.031158 0.073437 0.321045 0.139351 -0.024502 0.066600 0.060509 -0.118882 -0.074749 -0.060840 -0.239189 -0.115152 -0.143391 -0.147240 0.189166 0.260534 0.139732 -0.137666 0.058911 0.173962 0.133929 0.007378 0.086645 -0.012809 0.108903 0.050525 -0.063958 0.169776 0.036595 -0.078676 0.088677 0.075418 0.088693 -0.067959 -0.110089 0.255123 -0.152737 -0.073348 0.115464 -0.292510 -0.020136 -0.142774 0.125012 0.147240
то 0.218009 0.055409 -0.072123 0.023387 0.050825 0.089487 -0.080788 -0.040831 0.113436 0.047326 0.016809 -0.018206 0.064714 -0.058946 -0.098605 -0.042830 -0.226499 -0.131103 -0.097096 -0.070498 0.094174 0.195147 0.128308 -0.065812 0.025637 0.079746 0.079815 -0.018069 0.061498 0.029280 -0.024551 0.016213 -0.077464 0.058941 -0.030939 0.027346 0.052628 0.105301 0.082720 -0.085972 -0.061003 0.112986 -0.129140 0.003479 0.025515 -0.168567 0.089110 -0.077418 0.056713 0.127061
фильм -0.141063 0.062478 -0.053940 -0.086643 -0.032429 -0.199433 -0.001602 0.015241 -0.045660 0.122494 -0.023166 0.087720 -0.104675 0.030561 0.053321 0.097412 0.080750 0.053946 0.046259 -0.058007 -0.110274 -0.108305 -0.085196 0.022344 -0.040066 0.056683 -0.088430 0.081240 -0.033164 -0.028015 -0.054673 0.060518 0.049734 0.088601 0.008806 0.131355 -0.055911 0.007122 -0.020229 0.118819 -0.023371 -0.041311 0.079397 0.016541 0.031751 0.022201 -0.122370 -0.025963 0.065743 -0.008809
2007 -0.236079 -0.067388 0.069991 0.071330 -0.132030 -0.043752 0.115771 0.087486 -0.132674 -0.145384 0.034178 -0.055437 -0.008713 0.029173 0.070946 0.002035 0.272361 0.110632 0.119624 0.069654 -0.040907 -0.120010 -0.047680 0.051997 0.015483 -0.104356 -0.066740 0.094300 -0.021097 -0.048949 0.183645 -0.059039 0.106533 0.001211 -0.016824 -0.015201 -0.030387 -0.102983 -0.098572 0.043112 0.037743 0.002075 0.136813 0.057918 -0.059765 0.144499 -0.089840 0.003433 -0.109467 -0.180502
2013 0.086626 0.022599 -0.026366 0.052326 0.055829 0.108732 -0.040628 -0.006353 0.108242 -0.009417 0.008859 -0.044438 0.048226 -0.021904 -0.058335 -0.067383 -0.153885 -0.055802 -0.045985 -0.057741 0.079999 0.099473 0.063506 -0.045166 -0.008471 0.060399 0.052441 -0.074573 0.025836 0.025013 -0.009478 0.045758 -0.049918 0.017173 -0.039480 -0.024500 0.068912 0.011893 0.044397 -0.038770 -0.000550 0.050369 -0.114784 -0.001205 -0.000291 -0.028784 0.047180 -0.030890 0.048153 0.076957
вместе 0.247357 -0.032733 0.033863 0.144797 0.115007 0.234110 -0.142653 -0.075661 0.220257 -0.186558 -0.091085 -0.253691 0.179923 -0.053707 -0.200653 -0.218234 -0.358048 -0.201439 -0.166122 -0.004978 0.146157 0.215761 0.116928 -0.082993 -0.006488 -0.023124 0.128021 -0.212915 0.101765 0.076707 -0.047838 -0.022074 -0.060478 0.000557 -0.080418 -0.091947 0.143348 0.054244 0.070054 -0.189274 -0.037854 -0.035349 -0.263285 0.021131 -0.043865 0.042438 0.173969 0.072485 0.068613 0.042088
гг -0.277535 -0.136776 0.114020 -0.006047 -0.102499 -0.128226 0.155944 -0.000913 -0.267845 -0.110871 -0.011245 0.018400 -0.073209 0.043627 0.114389 0.094026 0.339807 0.155202 0.164056 0.142649 -0.155219 -0.297868 -0.170254 0.159896 -0.033160 -0.122073 -0.096772 0.063383 -0.101041 -0.019580 0.019367 -0.031838 0.062957 -0.132574 0.024784 -0.006929 -0.075424 -0.143052 -0.108261 0.097652 0.095450 -0.153262 0.170340 0.064959 -0.033008 0.257202 -0.079985 0.070648 -0.151003 -0.213864
год 0.024599 0.028953 0.009141 0.069168 0.017381 0.034561 -0.027653 0.029544 0.050109 0.017419 0.011877 -0.008917 0.038044 0.016352 -0.042686 -0.034680 -0.042073 -0.032718 0.017399 -0.033911 0.000178 0.005058 0.030187 0.000667 0.009090 0.057870 0.014057 -0.000753 0.020291 0.011885 -0.008256 0.066940 -0.004526 0.076117 -0.026939 -0.012937 0.087363 -0.033291 0.042525 -0.003997 0.012718 0.029553 -0.003763 0.015191 -0.009734 0.014552 -0.025887 -0.014330 0.002890 0.020964
другие 0.269025 0.123545 -0.244915 -0.049880 0.148497 -0.055776 -0.210481 -0.076705 0.168271 0.219140 0.017229 -0.042365 0.004186 0.025130 -0.140938 0.042932 -0.386603 -0.210769 -0.190360 -0.136774 0.006022 0.130562 0.052716 -0.090435 0.048302 0.183386 0.022427 -0.038290 0.022838 0.078614 -0.178306 0.089792 -0.112064 0.051882 -0.133179 0.141371 0.033515 0.207111 0.142587 -0.184379 0.011600 -0.003874 -0.168449 -0.088583 0.012169 -0.254839 0.167464 0.014639 0.142746 0.297782
кино 0.127036 -0.004341 -0.017578 0.007705 0.039199 0.033473 -0.014600 -0.021147 0.036873 0.018122 0.022003 -0.029757 0.068985 -0.016710 -0.040288 -0.008394 -0.069217 -0.037537 -0.046466 -0.049870 0.053866 0.088623 0.031983 -0.052357 0.020510 0.040056 0.061994 -0.020053 -0.006580 0.057328 -0.009485 -0.029118 -0.010875 -0.079637 -0.028789 -0.022779 0.019330 -0.011341 0.057515 -0.077371 -0.015194 0.029733 -0.053601 -0.018748 0.035862 -0.044845 0.107504 -0.001725 -0.039063 0.057922
окончил 0.019830 -0.015725 0.164420 -0.001920 -0.098567 0.132763 0.140809 0.042372 0.071597 -0.125318 0.077785 0.015879 0.175908 -0.049672 0.021183 -0.032434 0.129961 0.039859 0.043481 -0.000135 0.131971 0.154862 0.082713 -0.061530 0.077832 -0.039018 0.140181 0.040413 0.041813 0.027078 0.174111 -0.060918 0.016984 -0.060926 0.103863 -0.170377 0.059902 -0.116225 0.007852 -0.041684 -0.052630 0.137709 0.017968 -0.005031 0.022571 -0.048848 0.027936 -0.036353 -0.099343 -0.131164
п 0.233162 -0.026755 -0.105918 0.081851 0.181358 0.045712 -0.241942 -0.103762 0.173707 -0.045800 -0.044533 -0.132800 0.040710 0.025102 -0.169195 -0.102712 -0.393764 -0.189545 -0.161128 0.029817 0.041611 0.162481 0.043835 -0.096000 -0.055505 -0.009242 0.029882 -0.187485 0.057996 0.105241 -0.254605 0.073278 -0.079074 -0.086944 -0.144531 0.076056 0.067326 0.175114 0.073489 -0.159049 0.114074 -0.148970 -0.237901 -0.018644 -0.035827 -0.023466 0.230981 0.141737 0.093080 0.162754
регент -0.335039 -0.027709 0.077869 -0.083380 -0.072946 -0.167186 0.101978 -0.002173 -0.299754 -0.084544 0.044323 0.072146 -0.100779 0.069321 0.234371 0.144751 0.320378 0.201623 0.119240 0.102046 -0.128489 -0.207220 -0.184118 0.114576 -0.020147 -0.173768 -0.192454 0.041191 -0.081914 -0.108520 0.017225 -0.004804 0.091452 -0.082426 0.080626 0.063713 -0.123786 -0.033987 -0.124249 0.154633 0.055100 -0.165053 0.182234 0.030249 0.009922 0.197756 -0.088805 0.056660 -0.033058 -0.172893
сергей 0.098489 0.014753 -0.033236 -0.020018 0.010853 -0.038130 -0.005178 -0.012012 0.044260 0.071613 0.074117 0.074447 -0.003046 0.037133 -0.030682 0.043682 -0.019447 -0.011950 -0.029368 -0.010885 -0.021422 0.038742 0.017222 0.000622 0.037012 0.071134 -0.024117 0.051031 -0.023026 0.002362 -0.049508 0.050516 -0.006695 0.015574 -0.030631 0.031180 -0.013291 0.041917 0.056381 -0.036423 0.031444 0.026206 0.018322 -0.025980 0.056635 -0.103543 0.030740 0.010872 -0.019739 0.065336
со 0.065175 0.029215 -0.054401 0.008872 0.055134 -0.005737 -0.054310 -0.034088 0.018966 0.054079 0.004773 -0.006746 0.003898 0.011055 -0.038573 0.045617 -0.062825 -0.040373 -0.033159 -0.021427 -0.025152 -0.020189 -0.002707 0.015259 0.020155 0.081605 0.018287 0.029152 -0.013689 -0.003164 -0.035165 0.009492 -0.015073 0.016478 -0.016690 0.022314 0.015156 0.021493 0.065254 -0.032930 -0.018286 0.021095 -0.009476 -0.050634 0.002114 -0.038639 0.054762 0.002177 -0.004244 0.032858
театра -0.088412 0.034743 -0.049096 -0.038526 0.002229 -0.141851 -0.008528 -0.070120 -0.134741 0.091530 0.043742 0.042179 -0.110895 0.005440 0.088680 0.100058 0.127134 0.056940 0.030346 -0.017803 -0.081220 -0.060773 -0.117455 0.018788 -0.021043 0.018448 -0.091417 0.066994 -0.022158 0.032122 -0.033124 0.019095 0.032422 0.018856 -0.029148 0.092305 -0.069675 -0.036204 0.018722 0.065957 0.047450 -0.040521 0.049915 0.014826 -0.038315 -0.009554 -0.034080 -0.009660 -0.012759 -0.060281
юрий -0.059516 -0.027448 0.005738 -0.104870 -0.017751 -0.085716 0.065695 -0.010624 -0.095566 -0.002646 0.095029 0.047352 -0.032340 0.061062 0.051232 0.054520 0.106641 0.034353 0.015610 -0.008207 -0.028054 -0.104241 -0.066341 -0.002599 0.003679 0.048930 -0.088632 0.071218 -0.027835 0.008469 -0.008656 -0.051254 0.062462 -0.141114 0.027921 0.029371 -0.051348 -0.055566 0.001202 0.005489 0.005573 0.006763 0.094839 0.011643 0.007591 0.020541 -0.011205 0.000165 -0.029859 -0.067431
2005 0.080151 -0.007351 0.022342 0.085925 0.000132 0.119800 -0.075954 0.030881 0.073787 -0.019055 -0.026099 -0.118107 0.053750 -0.013597 -0.062115 -0.094516 -0.089117 -0.054576 -0.044625 -0.003732 0.058116 0.054221 0.062929 -0.021252 -0.017838 -0.009863 0.063895 -0.059573 0.038934 -0.001979 0.058991 -0.012084 0.000727 0.040030 -0.029885 -0.072969 0.103601 0.048506 0.003454 -0.085888 -0.008273 -0.001749 -0.103039 0.017783 -0.027510 0.044761 0.034171 -0.008280 0.028820 0.032080
диктатор -0.144197 -0.010307 -0.025819 -0.017272 -0.029807 -0.103507 0.001028 -0.028474 -0.179373 -0.034111 0.022678 0.071242 -0.133519 0.013411 -0.008257 0.063015 0.134745 0.049405 0.104379 0.059419 -0.183577 -0.183194 -0.062203 0.157614 -0.043301 0.002222 -0.119043 0.037476 -0.007321 0.014353 -0.118562 0.048911 0.049269 0.052078 0.004127 0.119468 -0.101009 -0.016450 -0.027607 0.164278 0.009229 -0.125557 0.137178 0.039865 -0.041428 0.135602 -0.039590 0.017271 -0.025229 -0.047739
е 0.082764 -0.088137 0.051711 0.041715 0.049887 0.017656 -0.044682 -0.032918 0.004308 -0.063972 -0.029796 -0.057150 0.109185 0.037317 -0.076855 -0.070565 -0.054745 -0.021930 -0.016085 0.029571 -0.007289 0.023598 0.058621 -0.009376 -0.003296 -0.051498 0.053540 -0.063782 0.008054 0.050304 -0.097292 -0.013309 -0.035038 -0.135274 -0.049163 -0.014816 0.057059 -0.023456 0.011563 -0.096673 0.051477 -0.100965 -0.064930 0.041262 0.027904 0.074659 0.086876 0.085413 -0.061776 0.031402
играл 0.195106 -0.005286 -0.011046 0.073722 0.058042 0.124713 -0.041452 0.010060 0.135992 -0.039800 0.008144 -0.074479 0.102569 -0.004291 -0.119889 -0.060257 -0.190970 -0.123655 -0.040347 -0.039086 0.059949 0.134286 0.109929 -0.042357 0.044904 0.088579 0.094701 -0.079184 0.040536 0.050226 -0.003121 0.023037 -0.071024 -0.015896 -0.070622 -0.057280 0.109571 -0.000578 0.063312 -0.126607 0.008498 0.008326 -0.111482 -0.002059 0.044694 -0.045606 0.064646 0.006096 0.031779 0.068264
когда 0.041381 -0.008449 -0.009888 -0.006712 0.020575 -0.000365 -0.004456 -0.033774 0.015763 -0.022876 0.033380 -0.017930 0.043617 -0.004004 -0.012346 -0.026555 0.017684 -0.021874 -0.010697 -0.020965 0.035776 0.005478 0.052726 0.010247 0.021828 0.026805 0.059914 -0.012384 0.008328 0.044365 0.023324 -0.004264 0.003428 -0.008865 -0.006055 -0.021621 0.030551 0.008953 0.003524 -0.027616 0.009658 0.011775 0.007232 0.001139 0.021606 -0.053104 0.011877 -0.021716 -0.004446 -0.007651
концерт -0.452475 -0.136094 0.140871 -0.114742 -0.071975 -0.321063 0.043170 -0.026571 -0.328715 -0.220284 -0.035936 0.001931 -0.130179 0.103517 0.070126 0.072157 0.392253 0.246285 0.161262 0.120243 -0.242293 -0.427848 -0.211706 0.190620 -0.068854 -0.260180 -0.203935 -0.029581 -0.057471 -0.064000 -0.172263 -0.108263 0.114721 -0.108388 0.035846 0.132913 -0.235590 -0.139167 -0.159595 0.236369 0.086340 -0.346615 0.262748 0.040001 -0.032515 0.343237 -0.152851 0.099884 -0.040580 -0.218681
об -0.133258 -0.019074 0.047400 -0.020982 -0.018414 -0.114325 0.053943 -0.015496 -0.150500 0.002476 0.028324 0.046265 -0.003266 0.073371 0.119969 0.087788 0.231030 0.134937 0.072300 0.068322 -0.118044 -0.146586 -0.072543 0.096051 0.000160 -0.049979 -0.076279 0.077081 -0.097293 -0.035966 -0.002666 -0.050622 -0.015674 -0.106635 0.050823 0.024996 -0.081361 -0.058778 -0.086332 0.012781 -0.011098 -0.035209 0.161370 0.000025 0.041131 0.111464 -0.046542 0.047058 -0.087571 -0.008623
прямухино 0.261366 -0.006308 -0.030247 -0.040697 0.034226 0.104124 0.030908 0.038647 0.146679 0.020391 0.068337 0.039367 0.095103 -0.052832 -0.110984 -0.007336 -0.129974 -0.050657 -0.043759 -0.065637 0.055066 0.166525 0.132442 -0.053176 0.074345 0.114392 0.127016 0.008827 0.008867 0.042828 0.055260 -0.003813 -0.057018 -0.036789 -0.019030 -0.107751 0.047501 -0.015444 0.114808 -0.153654 -0.010505 0.130319 -0.072761 -0.028224 0.106922 -0.196851 0.132530 0.008985 -0.056836 0.138530
псевдонимом 0.136913 -0.332003 0.183853 0.033060 0.119108 0.264147 0.041339 0.004306 -0.207023 -0.366171 -0.321623 -0.281864 0.204837 -0.048902 -0.013546 -0.149091 0.099027 0.084224 -0.069470 0.316879 0.102272 -0.181643 0.046032 0.085256 -0.028350 -0.273262 0.160067 -0.184455 -0.156889 0.030073 0.018348 -0.344924 0.094910 -0.662438 0.127064 -0.283827 -0.015586 -0.078215 -0.169210 -0.262716 -0.080436 -0.287897 -0.015740 -0.043260 -0.013206 0.413237 0.262457 0.154058 -0.202869 -0.119798
регентом -0.198807 0.103962 -0.062674 -0.067125 -0.128055 -0.092270 0.028818 0.116902 -0.040063 0.131604 0.012815 0.142190 -0.154335 -0.041244 0.143796 0.144662 0.092134 0.108007 0.001440 -0.041810 -0.039585 -0.049221 -0.075436 0.028540 -0.008404 -0.014371 -0.166589 0.083713 0.024795 -0.150932 0.047749 0.069048 0.021797 0.209565 0.102361 0.063800 -0.036462 0.117171 -0.045923 0.203857 -0.070829 0.059194 0.064710 -0.054111 0.032295 -0.064063 -0.179914 -0.103351 0.152450 -0.043016
1999 -0.194009 0.030197 0.030319 0.022854 -0.051374 -0.062152 -0.012888 -0.026377 -0.072801 -0.009114 0.000585 -0.017466 -0.054025 0.043459 0.085309 0.039199 0.116428 0.042137 0.019804 0.041991 -0.068091 -0.102427 -0.084839 0.071759 -0.041953 -0.066670 -0.055008 -0.010607 -0.008420 0.030663 -0.017179 -0.011888 0.048530 -0.028947 0.002501 0.072000 -0.034495 0.008852 -0.068073 0.041399 0.069987 -0.125977 0.038943 0.033821 -0.090798 0.114099 -0.033925 0.037814 -0.002600 -0.074481
2006 -0.021577 -0.021258 0.058858 0.137813 -0.008071 0.110894 -0.052308 0.007066 0.056268 -0.161372 -0.072316 -0.195043 0.030406 0.017132 -0.094326 -0.153269 -0.133299 -0.069628 -0.043743 0.044710 0.043594 0.019752 0.028580 0.009536 -0.037159 -0.141136 0.015086 -0.162101 0.082686 0.042392 -0.020464 -0.012477 -0.007213 0.089982 -0.047002 -0.038553 0.087196 0.032964 -0.053341 -0.067262 0.022749 -0.174914 -0.130562 0.028429 -0.080687 0.163100 0.009008 0.043109 0.097013 -0.089029
2008 -0.537100 -0.075183 0.067047 -0.017407 -0.139458 -0.293998 0.165790 0.034850 -0.351320 -0.071238 -0.010137 0.031983 -0.211803 0.066465 0.152911 0.123088 0.457103 0.209335 0.172483 0.134538 -0.230554 -0.364559 -0.248066 0.122071 -0.036361 -0.145661 -0.224784 0.178772 -0.090055 -0.097787 0.028606 0.029417 0.125318 0.033899 -0.036486 0.153006 -0.113181 -0.102991 -0.214945 0.174484 0.110620 -0.133102 0.330506 0.034234 -0.126454 0.268539 -0.203503 0.034583 -0.123313 -0.251898
iv -0.313336 0.101228 -0.031587 -0.084458 -0.111717 -0.172321 0.107971 0.034535 -0.178067 0.071152 0.011688 0.120164 -0.165874 -0.001635 0.264241 0.186575 0.214533 0.176528 0.019144 0.009762 -0.087661 -0.104494 -0.171535 0.074103 -0.022414 -0.105119 -0.174344 0.087143 -0.011201 -0.130295 0.090592 0.040505 0.054730 0.085484 0.097847 0.087503 -0.160318 0.046926 -0.114020 0.170434 0.010061 -0.052840 0.114184 0.009911 -0.017977 0.081549 -0.137662 -0.053422 0.070423 -0.081464
более 0.246629 0.183283 -0.219749 -0.013602 0.108030 -0.027628 -0.157628 -0.006689 0.192386 0.280645 0.020617 0.069409 -0.036516 -0.040393 -0.089258 0.026300 -0.329323 -0.183590 -0.176106 -0.167668 0.033096 0.184976 0.065331 -0.107805 0.023794 0.252658 0.029129 0.043850 0.048931 -0.047541 -0.068611 0.118829 -0.118976 0.195840 -0.034787 0.076471 0.045878 0.220312 0.170972 -0.053114 -0.101941 0.209031 -0.109124 -0.092595 0.059478 -0.301105 0.048151 -0.126835 0.164251 0.263907
выставка -0.599717 -0.154545 0.153820 -0.134526 -0.140531 -0.395230 0.133841 -0.017859 -0.469748 -0.184091 0.014950 0.105852 -0.206433 0.119183 0.195718 0.179421 0.632089 0.358830 0.252376 0.160092 -0.342882 -0.545710 -0.277833 0.241290 -0.074833 -0.274884 -0.268286 0.097705 -0.147837 -0.104944 -0.106820 -0.112622 0.169062 -0.139394 0.088714 0.159398 -0.294459 -0.205662 -0.202443 0.333406 0.112079 -0.322202 0.408476 0.050040 -0.027059 0.380681 -0.215476 0.095934 -0.134523 -0.308074
должности 0.035941 0.038524 -0.028049 -0.063018 -0.005703 -0.051483 0.077948 0.158046 0.102887 0.146955 0.050270 0.063482 -0.066556 -0.071723 -0.109552 0.187781 -0.001618 -0.030133 0.116748 -0.036888 0.015524 0.019080 0.011670 -0.067599 -0.003887 0.222641 0.016569 -0.025854 0.025888 0.056923 0.022937 0.062527 0.076415 0.085093 -0.002571 -0.038724 -0.044596 -0.063529 0.006943 -0.008830 0.017252 0.141238 0.074554 0.004844 0.038355 -0.251382 -0.077751 -0.057460 0.031320 0.069595
малолетство -0.098312 -0.141182 0.187815 0.015412 -0.075299 -0.018924 0.189724 0.045128 -0.149655 -0.133050 0.104837 0.061387 0.073571 0.021258 0.100486 0.043041 0.314582 0.122118 0.133105 0.131309 -0.009475 -0.082253 -0.012444 0.080257 0.027003 -0.060937 -0.006300 0.080900 -0.086652 0.030980 0.111434 -0.083722 0.083330 -0.192772 0.062092 -0.093526 -0.050711 -0.226627 -0.040646 0.039593 0.039170 -0.013820 0.171234 0.030334 0.054207 0.119873 0.026132 0.042966 -0.210686 -0.168961
первый -0.063898 -0.060111 0.060588 0.037250 -0.034341 -0.002302 0.089969 -0.016348 -0.069168 -0.101474 0.051980 0.006131 0.020908 0.003251 0.050158 0.014491 0.137904 0.067793 0.065493 0.076325 -0.059424 -0.022606 -0.013093 0.036665 -0.018460 -0.033138 -0.007894 0.071225 -0.066605 -0.022653 0.052527 -0.028103 0.044877 -0.077764 0.040644 -0.027400 0.011902 -0.073850 -0.016358 0.014978 0.033569 -0.030527 0.091562 0.017775 0.017433 0.074373 0.023508 0.014466 -0.121238 -0.089822
продюсер -0.555783 -0.098398 0.056435 0.008811 -0.150602 -0.185921 0.155181 -0.053370 -0.430852 -0.012800 0.008565 0.121573 -0.262757 0.024970 0.300310 0.248194 0.631290 0.293236 0.253605 0.181085 -0.321243 -0.420156 -0.267774 0.196035 -0.100749 -0.169994 -0.258789 0.233081 -0.203361 -0.100064 0.038605 -0.016497 0.162870 -0.146419 0.127314 0.129303 -0.207756 -0.132695 -0.120473 0.339484 0.058197 -0.199242 0.291859 0.025867 -0.109623 0.354069 -0.102494 0.102202 -0.182946 -0.360080
себе -0.103441 0.021877 -0.069176 -0.030868 0.041203 -0.146627 -0.009053 -0.032544 -0.055897 0.160194 -0.008380 0.087168 -0.120569 0.071432 0.081765 0.145979 0.035202 0.049173 0.039360 0.024460 -0.103195 -0.132853 -0.051237 0.053453 -0.049150 0.070636 -0.110118 0.061866 -0.072015 0.029490 -0.042381 0.072307 0.010248 0.002758 -0.005549 0.132276 -0.019392 0.033043 0.011655 0.058808 0.024722 -0.058196 0.124459 -0.023942 -0.018552 0.020121 -0.081227 0.008063 0.025215 0.076545
том 0.364758 0.061411 -0.104738 -0.030739 0.072863 0.096821 -0.069756 -0.009744 0.210321 0.098255 0.052357 0.018701 0.128633 -0.011103 -0.147248 0.008665 -0.307404 -0.176097 -0.153963 -0.125228 0.108022 0.256079 0.196790 -0.106133 0.083790 0.184655 0.146046 -0.023982 0.070742 0.056126 0.003735 0.029521 -0.115666 -0.006973 -0.059683 -0.021096 0.107433 0.123928 0.159210 -0.180489 -0.035871 0.164262 -0.138502 -0.075339 0.106519 -0.312966 0.126532 -0.046288 0.025019 0.214400
фильме 0.098397 -0.062972 0.062865 -0.000484 0.013666 0.105420 0.103975 0.006922 0.027384 -0.100199 0.052314 0.019431 0.118534 -0.006994 0.003697 -0.029240 0.034197 -0.010719 0.017402 0.003064 0.057841 0.075400 0.107378 0.032472 0.075494 0.007846 0.112833 0.006424 -0.041577 0.045348 0.080970 -0.061875 -0.015345 -0.164775 0.030128 -0.142834 0.057794 -0.102045 0.052520 -0.070114 -0.019248 0.068223 0.033168 -0.024019 0.090366 -0.043133 0.077654 0.009935 -0.139001 0.001506
через -0.050435 0.011136 0.014897 -0.023762 0.011800 -0.088911 0.059927 0.055393 -0.074612 0.058833 0.059851 0.115702 -0.089250 0.012298 0.065765 0.047786 0.092223 0.019233 0.085142 -0.028916 -0.091701 -0.077119 -0.060922 0.010429 0.029282 0.080299 -0.071754 0.058971 -0.053668 0.030416 0.003380 0.009523 0.032344 0.035577 0.007333 0.029409 -0.050355 -0.062072 -0.005754 0.063980 -0.000506 0.035414 0.122817 0.005345 0.030265 -0.035379 -0.064953 -0.041167 -0.031908 -0.011795
является 0.063821 0.042684 -0.069979 -0.021136 0.019056 -0.005245 -0.018842 0.025838 0.056662 0.111896 0.002626 0.054142 -0.034090 0.009491 -0.030905 0.061091 -0.046879 -0.015712 -0.016029 -0.044592 -0.029247 0.027011 0.002274 -0.038754 0.006369 0.083855 -0.000647 0.044280 -0.014157 0.010689 -0.021788 0.038007 0.004080 0.056249 -0.029433 0.015672 -0.009282 0.039079 0.040657 -0.039679 -0.001986 0.075961 0.018102 -0.022628 0.039686 -0.093650 0.030694 -0.010812 0.012799 0.084163
января -0.104488 -0.016075 0.147744 0.050196 -0.143924 0.024583 0.119326 0.134145 -0.035035 -0.081530 0.026797 0.013936 -0.043028 0.038107 0.002535 -0.036465 0.105851 0.052894 0.117509 -0.004035 -0.037250 -0.068542 0.008599 0.084538 0.037685 -0.032840 -0.020083 -0.018900 0.004763 -0.032627 0.138859 0.028103 0.023313 0.127200 0.041330 -0.096396 0.059413 -0.072496 -0.050715 0.035470 -0.013659 -0.019619 0.076303 0.031448 0.005078 0.053123 -0.208253 -0.037402 0.008751 -0.180559
2010 -0.098194 -0.015235 0.025597 0.069681 -0.002220 -0.020002 -0.039305 -0.002877 -0.062146 -0.045312 -0.018030 -0.040998 -0.019182 0.011672 0.018100 -0.025337 0.102940 0.065872 0.044637 0.074810 -0.043259 -0.083959 -0.045340 0.010126 -0.046677 -0.091603 -0.055536 -0.013764 0.010742 0.007117 -0.022434 0.025173 0.028086 0.037002 -0.032637 0.006322 -0.044968 -0.032938 -0.093737 0.068742 0.030664 -0.074369 0.002709 0.051267 -0.057714 0.151451 0.006166 0.015650 -0.015180 -0.068374
i -0.091351 0.081610 -0.039631 -0.092359 -0.044457 -0.087769 0.034945 0.017648 -0.026466 0.062311 0.091416 0.101675 -0.069149 0.031771 0.114684 0.119259 0.051004 0.046700 -0.025143 -0.076232 -0.045359 0.020179 -0.060619 0.012215 0.017768 0.002930 -0.092911 0.038419 0.005416 -0.061206 0.004396 0.066402 -0.001490 0.065940 0.030699 0.084435 -0.043313 0.062477 0.013913 0.074317 0.000878 0.011048 0.056029 -0.004451 0.056776 -0.054320 -0.064029 -0.035496 0.068280 0.014261
без -0.105936 0.064536 -0.052850 -0.036085 -0.022776 -0.161324 -0.008895 0.008790 -0.059848 0.097189 0.105521 0.102646 -0.099204 0.030063 0.058320 0.107675 0.093144 0.009295 0.048912 -0.040305 -0.120675 -0.063623 -0.061674 0.018889 0.008137 0.073581 -0.068931 0.081892 -0.036924 -0.013891 -0.034376 0.071898 0.007203 0.088367 -0.017756 0.081598 -0.040909 0.007021 0.027592 0.097825 0.015296 0.042351 0.105324 0.007376 0.012159 -0.075067 -0.089612 -0.045583 0.022266 -0.017001
времени 0.053153 0.022787 -0.113887 -0.007860 0.080500 -0.081118 -0.084786 -0.034536 -0.010287 0.103658 0.006468 0.010501 -0.045506 0.013102 -0.026680 0.083442 -0.087416 -0.034123 -0.048229 -0.048446 -0.045799 -0.037416 -0.032412 0.015654 -0.026045 0.066631 -0.005489 0.027428 -0.018856 0.012473 -0.113428 0.042826 -0.044254 -0.051910 -0.065763 0.071941 -0.039108 0.044931 0.038926 -0.011414 0.052145 0.003740 -0.023415 -0.019585 -0.007105 -0.025730 0.064066 0.014353 -0.007686 0.079946
де -0.072875 -0.056985 0.098883 0.044137 -0.017309 0.106256 0.045542 -0.069220 0.027507 -0.132989 0.028888 -0.066417 0.106220 -0.017386 0.045836 -0.082367 0.080925 -0.003404 -0.020336 -0.000305 0.099826 0.077829 0.048488 -0.060462 -0.006402 -0.136373 0.087141 -0.049739 0.025051 0.003849 0.068855 -0.086824 0.013734 -0.049498 0.025000 -0.096087 0.073803 -0.034693 -0.012016 -0.024275 -0.011160 -0.001235 -0.047033 0.024475 -0.061682 0.051375 0.002711 0.027654 -0.067963 -0.125737
жизни 0.202038 0.084071 -0.142960 -0.061370 0.074046 -0.021602 -0.094898 -0.034082 0.190454 0.135404 -0.005641 0.014308 0.006499 -0.048087 -0.084479 0.037126 -0.222844 -0.110262 -0.150357 -0.097946 0.071686 0.137609 0.049264 -0.116460 0.032107 0.142337 0.072697 0.005004 0.025118 0.013805 -0.050309 0.049282 -0.090888 0.015113 -0.050420 0.045082 0.026359 0.108482 0.076005 -0.116875 -0.021416 0.095366 -0.143096 -0.072885 0.037096 -0.201468 0.092351 -0.031709 0.089313 0.187577
илья -0.223075 -0.007923 0.071710 -0.036395 -0.064238 -0.072497 0.085863 0.028965 -0.159464 -0.034634 0.040878 0.061916 -0.061413 -0.007800 0.104215 0.062988 0.257150 0.109774 0.106249 0.046008 -0.049054 -0.140303 -0.105632 0.056824 0.008616 -0.024220 -0.067669 0.089857 -0.057329 -0.052705 0.050539 -0.026128 0.081913 -0.031099 0.059657 -0.023319 -0.052696 -0.095575 -0.071810 0.129148 0.022091 0.001110 0.187265 0.052758 0.005960 0.097458 -0.116995 -0.025293 -0.088693 -0.097273
имени 0.123898 -0.063051 0.017502 0.026909 0.066087 0.090372 -0.035641 0.018749 0.083749 -0.097116 -0.023952 -0.090132 0.088108 -0.045039 -0.094911 -0.003948 -0.143677 -0.067016 0.001073 0.038493 0.050343 0.130038 0.064389 -0.067397 0.000867 0.022242 0.060863 -0.108240 0.000504 0.048381 -0.057320 -0.031207 -0.018794 -0.095705 -0.024881 -0.072062 0.040947 -0.024115 -0.006536 -0.108881 0.035398 -0.034769 -0.065741 0.002085 0.006393 -0.010343 0.117948 0.066613 -0.033169 0.031970
их 0.272489 0.077558 -0.135334 -0.033779 0.081858 0.083162 -0.084675 -0.002396 0.198403 0.081914 0.042705 -0.001926 0.066664 -0.031353 -0.142944 -0.002772 -0.276554 -0.156450 -0.099361 -0.123476 0.120826 0.210348 0.123547 -0.113062 0.047094 0.164242 0.111626 -0.042235 0.032308 0.041536 -0.013519 0.038420 -0.065659 0.037176 -0.051961 0.007291 0.037796 0.086560 0.103314 -0.111630 -0.042972 0.147246 -0.124270 -0.050866 0.071939 -0.230331 0.088266 -0.032876 0.052711 0.189820
л 0.077765 0.026020 -0.054644 0.005031 0.067016 -0.005040 -0.093618 -0.119588 0.002198 -0.017113 -0.033135 -0.081670 0.002721 0.018050 -0.078856 -0.007757 -0.157025 -0.076296 -0.067712 -0.005287 -0.011675 -0.014995 -0.018299 -0.033440 -0.000279 0.025851 -0.025624 -0.059088 -0.017171 0.048082 -0.097135 0.015471 -0.059856 -0.017694 -0.078952 0.053784 -0.025962 0.038291 0.012643 -0.055942 0.065158 -0.099147 -0.111803 -0.012210 -0.046467 0.033003 0.085245 0.051290 0.039483 0.064543
мая -0.444657 -0.006676 0.166037 -0.003194 -0.317810 -0.125642 0.219344 0.191190 -0.234662 -0.038996 0.143079 0.149287 -0.193558 0.062980 0.190195 0.048420 0.470993 0.238061 0.322646 0.012826 -0.218298 -0.306395 -0.099985 0.217631 0.018046 -0.042763 -0.150956 0.055553 -0.015070 -0.099177 0.281691 0.062108 0.123094 0.186612 0.165773 0.012186 -0.040947 -0.151031 -0.141448 0.295628 0.001469 -0.057744 0.290261 0.027701 -0.045064 0.121110 -0.473739 -0.080955 -0.024011 -0.350679
пожизненным -0.030151 0.021511 0.173508 0.062096 -0.119681 0.212398 0.072997 -0.031212 0.193105 -0.130226 -0.074154 -0.070896 0.098172 -0.090375 0.047698 -0.242988 -0.074992 -0.029891 -0.074440 -0.096000 0.256152 0.242967 0.121930 -0.156434 -0.002166 -0.098527 0.183980 -0.092599 0.108256 0.013920 0.169428 -0.078255 -0.008353 0.136437 0.086460 -0.146299 0.161849 -0.008943 -0.033886 -0.003306 -0.116187 0.145248 -0.144863 0.009478 -0.040053 -0.014209 -0.136990 -0.105484 0.080034 -0.142149
род -0.310805 -0.066343 0.047929 -0.040401 -0.077195 -0.152589 0.086285 0.004253 -0.263606 -0.039891 0.009076 0.049728 -0.110519 0.054538 0.130168 0.084205 0.299078 0.159689 0.127025 0.110663 -0.165052 -0.279228 -0.170869 0.139222 -0.023880 -0.117024 -0.147957 0.079951 -0.069019 -0.038875 -0.006864 -0.005120 0.070306 -0.026344 0.016087 0.039706 -0.123864 -0.086895 -0.110647 0.131505 0.087465 -0.127680 0.182323 0.050710 -0.052419 0.165949 -0.118294 0.050291 -0.055322 -0.150345
российской -0.448209 -0.066223 0.126959 -0.107833 -0.071746 -0.282997 0.183104 0.065885 -0.332655 -0.076853 0.059046 0.060383 -0.181614 0.090522 0.189879 0.207901 0.527922 0.261759 0.210628 0.184302 -0.227838 -0.405631 -0.295908 0.165322 -0.062593 -0.136731 -0.172022 0.110955 -0.185884 -0.027096 0.035180 -0.081619 0.172295 -0.138388 0.084081 0.039336 -0.239481 -0.149665 -0.142167 0.236896 0.102384 -0.173450 0.304350 0.068982 -0.084196 0.231054 -0.132865 0.075077 -0.165900 -0.167343
санкт -0.372375 -0.065782 0.131299 -0.054509 -0.137929 -0.204789 0.137376 -0.023545 -0.291083 -0.065119 0.095807 0.053715 -0.106336 -0.015568 0.188670 0.152562 0.469226 0.210022 0.198717 0.179182 -0.113117 -0.251706 -0.173784 0.113705 0.027360 -0.084657 -0.163116 0.165185 -0.024603 -0.038045 0.014986 -0.065569 0.137060 -0.081913 0.040165 -0.017218 -0.130868 -0.091291 -0.178302 0.182734 0.063951 -0.097212 0.230225 0.071222 -0.099042 0.132608 -0.064634 0.049418 -0.077899 -0.230183
сын -0.221820 0.010099 -0.007802 -0.072657 -0.087694 -0.166103 0.096225 0.003317 -0.143821 0.052561 0.062542 0.095696 -0.120117 0.033325 0.109776 0.145499 0.206458 0.052379 0.069061 -0.025641 -0.093384 -0.100260 -0.104541 0.068017 -0.004416 0.033141 -0.069553 0.134295 -0.024579 -0.043365 0.033126 0.015717 0.018794 0.056161 0.017965 0.116821 -0.095118 -0.025743 0.012687 0.108824 0.031722 -0.018877 0.187694 0.018297 0.020596 0.005586 -0.102271 -0.066782 -0.026839 -0.068154
тогда 0.213151 0.056363 -0.136471 -0.056193 0.047095 -0.049190 -0.038272 0.005921 0.089108 0.152498 0.044944 0.061466 -0.018420 -0.007416 -0.041819 0.060423 -0.118947 -0.077785 -0.044541 -0.073249 0.054315 0.075723 0.088392 -0.023159 0.029284 0.156157 0.039948 0.035896 0.006747 0.022930 -0.042310 0.042287 -0.043462 0.039267 -0.004201 0.042288 0.016613 0.079946 0.084054 -0.053722 -0.043998 0.085593 0.001686 -0.059698 0.057101 -0.207387 0.052756 -0.075972 0.031228 0.149052
1993 0.056153 0.041922 0.061857 0.046354 -0.077203 0.101775 0.016708 0.064272 0.130621 -0.024624 0.043209 0.011432 0.059256 -0.017437 -0.048121 -0.082884 -0.058364 -0.062439 -0.016297 -0.095444 0.091243 0.130495 0.109806 -0.049972 0.048912 0.041914 0.102385 -0.049637 0.058295 -0.012410 0.130813 0.045903 -0.059050 0.124708 0.014358 -0.080316 0.112725 0.001829 0.037069 -0.001401 -0.054707 0.111574 -0.052358 0.013140 0.036602 -0.091520 -0.099338 -0.077075 0.045863 -0.038379
1997 -0.219331 -0.046365 0.100975 0.037430 -0.084678 0.000178 0.084666 -0.018906 -0.166068 -0.103657 -0.007857 -0.007254 -0.052586 -0.022573 0.096872 0.031373 0.268027 0.124859 0.100327 0.106055 -0.066880 -0.120063 -0.090696 0.067943 -0.017897 -0.131367 -0.053390 0.058846 -0.037748 -0.018560 0.074553 -0.047441 0.052676 -0.077458 0.045171 -0.027605 -0.061583 -0.102699 -0.074140 0.116491 0.011427 -0.067150 0.074545 0.042160 -0.067521 0.166665 -0.019188 0.027300 -0.116470 -0.213569
2015 -0.200389 -0.023999 0.087748 0.025501 -0.026648 -0.068988 0.022508 0.003513 -0.129816 -0.074276 -0.051987 -0.059856 -0.050565 0.036682 0.042618 -0.024548 0.145483 0.075114 0.117793 0.072004 -0.113674 -0.156822 -0.097639 0.065830 -0.076753 -0.113267 -0.084520 -0.029842 -0.008904 -0.000122 -0.038269 0.017700 0.060473 0.023344 -0.003322 0.021704 -0.010494 -0.058611 -0.091935 0.090315 0.040149 -0.155265 0.076188 0.070914 -0.072310 0.220477 -0.065711 0.057295 -0.005155 -0.128022
2017 -0.074291 0.035648 0.067349 0.110598 -0.067277 0.049097 0.012914 0.090989 0.056225 -0.014148 0.026251 -0.001577 -0.009244 0.018576 -0.013793 -0.066788 0.012831 0.009545 0.052385 -0.021761 -0.018005 0.018873 0.061364 0.021486 -0.020606 0.005622 -0.011650 -0.010319 0.032938 -0.044007 0.078841 0.074043 0.024641 0.156289 0.026859 -0.030396 0.095583 -0.001281 -0.015851 0.066008 -0.026617 -0.005427 0.011150 0.019636 -0.013290 0.024838 -0.120944 -0.067399 0.053373 -0.088309
5 -0.075238 -0.072148 0.031803 0.059502 0.019646 0.025377 -0.031036 -0.040891 -0.051620 -0.140188 -0.046834 -0.139101 0.020048 0.002640 -0.040720 -0.075548 -0.016522 -0.023557 -0.003397 0.098587 0.002226 -0.037708 -0.026602 0.032746 -0.043969 -0.076456 -0.019875 -0.108592 0.008523 0.026448 -0.066201 -0.019158 -0.025944 -0.079252 -0.054920 0.004033 -0.008031 -0.042103 -0.006164 -0.011980 0.023788 -0.135832 -0.072517 0.030143 -0.072173 0.163426 0.050983 0.073497 -0.020378 -0.056158
александра 0.099554 0.029481 -0.038911 -0.008391 -0.007074 0.022228 0.005256 0.038184 0.070480 0.097201 0.038040 0.065210 0.023789 -0.006949 -0.030950 0.005570 -0.055653 -0.018860 -0.037456 -0.071007 0.019010 0.091571 0.063648 -0.030616 0.057125 0.095112 0.035656 0.046799 -0.002333 0.010094 0.033310 0.033458 -0.014877 0.065241 -0.027506 -0.027279 0.033777 0.016269 0.046405 -0.053088 -0.022334 0.100842 -0.027002 -0.019018 0.051953 -0.121291 -0.013785 -0.031619 -0.001464 0.069436
бакунин 0.022052 0.054172 0.225697 -0.010335 -0.236199 0.099829 0.124564 0.009649 0.125568 -0.076272 -0.013778 0.033794 0.046678 -0.012272 0.028050 -0.172735 -0.010813 0.099460 -0.078425 0.012599 0.024177 0.078354 0.016869 -0.101128 0.017384 -0.195627 -0.024074 -0.072938 -0.027644 0.039605 0.132363 -0.065160 0.101194 0.131715 0.139723 -0.093293 0.075865 -0.037730 -0.058018 0.053488 0.100489 0.031762 0.074197 -0.007580 0.088876 -0.017293 -0.197814 0.094913 -0.069719 -0.051404
власть 0.151928 0.041566 -0.045840 -0.027675 0.026340 0.019248 0.009468 0.018984 0.100506 0.072489 0.060497 0.056566 0.029105 -0.020912 -0.046291 0.037402 -0.058774 -0.046532 -0.006074 -0.069944 0.015870 0.062030 0.065551 -0.012981 0.053456 0.115659 0.060703 0.054172 0.012691 0.022907 0.012475 0.026299 -0.022190 0.016409 -0.023345 -0.024591 0.020267 0.013701 0.071896 -0.043493 -0.038450 0.104356 0.009583 -0.031928 0.083113 -0.152541 0.022625 -0.049550 0.006686 0.085301
геннадий -0.296313 0.139688 -0.086053 -0.074588 -0.115802 -0.208243 0.038128 0.074076 -0.011183 0.218674 -0.139521 0.144906 -0.288602 -0.006897 0.182124 0.165289 0.073093 0.116231 -0.042224 -0.034185 -0.139222 -0.090314 -0.140616 -0.109997 -0.092830 -0.012052 -0.171179 0.089546 -0.054136 -0.090530 -0.018631 0.058831 0.054349 0.204185 0.083637 0.221202 -0.041063 0.024468 -0.096608 0.252419 0.030727 -0.114854 0.093614 -0.116188 0.013820 -0.046705 -0.234378 -0.037144 0.091640 0.074233
григорьев -0.365255 0.131527 -0.041547 -0.062022 -0.161240 -0.201760 0.074595 0.084064 -0.053792 0.187743 -0.150433 0.149251 -0.292554 -0.006622 0.219805 0.137769 0.143228 0.149838 -0.022222 -0.012704 -0.145015 -0.118532 -0.149288 -0.091739 -0.100927 -0.063870 -0.197142 0.086278 -0.056406 -0.114353 0.012969 0.042489 0.066195 0.224614 0.108844 0.207019 -0.048903 0.002532 -0.128134 0.299844 0.024974 -0.130076 0.120204 -0.096887 0.001456 0.003693 -0.281274 -0.040742 0.088477 0.020737
группы -0.167166 0.017193 -0.090225 -0.064860 0.026802 -0.138967 0.013243 -0.026998 -0.116152 0.060857 -0.001648 0.067144 -0.144088 0.019316 0.079167 0.112481 0.092023 0.060097 0.049744 0.015435 -0.151593 -0.140798 -0.111875 0.023110 -0.037633 0.042567 -0.148704 0.077089 -0.052085 -0.026319 -0.094241 0.076248 0.045407 0.020973 -0.008193 0.149217 -0.090310 0.005061 -0.038427 0.128269 0.046948 -0.081607 0.120263 0.011315 -0.004435 0.034884 -0.055446 0.045263 -0.001217 0.000379
который 0.034527 -0.005619 0.026281 -0.010542 -0.034987 0.022202 0.049721 0.032647 0.006174 -0.035803 0.054238 0.038467 0.036042 -0.003050 0.028016 0.017461 0.051589 0.016531 0.015103 -0.023734 0.037483 0.048176 0.052123 -0.028404 0.052344 0.016406 0.057319 0.024755 -0.026537 0.010630 0.069076 -0.037419 0.023955 -0.049022 0.024227 -0.035405 0.021186 -0.074566 0.014833 -0.019164 -0.014630 0.087377 0.042371 0.018768 0.050846 -0.058938 0.011658 -0.025227 -0.065476 -0.008913
марта -0.010466 -0.022543 0.062872 0.072783 -0.071834 0.048326 0.035894 0.123211 -0.012832 -0.056210 0.014879 -0.017079 0.001236 0.044297 -0.084018 -0.051331 0.032454 0.000601 0.094852 -0.019669 -0.023576 -0.024104 0.043515 0.048341 0.024072 0.011382 -0.003729 -0.045020 -0.016385 -0.000944 0.105426 0.085956 -0.016849 0.069176 -0.033330 -0.058674 0.063501 -0.061329 -0.025400 0.014497 0.010811 -0.030398 0.023443 0.023779 0.018336 0.010552 -0.137721 0.005662 0.006605 -0.088029
между 0.234087 0.091060 -0.169798 -0.036312 0.125498 0.026484 -0.171092 -0.073159 0.246302 0.168703 0.028160 -0.032703 0.000552 -0.005498 -0.116818 -0.009350 -0.346609 -0.190221 -0.167012 -0.141941 0.077247 0.173994 0.073567 -0.113475 -0.006405 0.173741 0.065052 -0.035470 0.064660 0.077748 -0.137655 0.086562 -0.096254 0.125426 -0.135559 0.100294 0.062011 0.171078 0.155817 -0.135548 0.000985 0.044478 -0.186864 -0.064218 -0.006861 -0.210616 0.103022 -0.031471 0.128462 0.234916
москве 0.181274 -0.032600 0.083195 0.042658 -0.008031 0.114187 0.065862 0.088385 0.095432 -0.017682 0.052056 0.014871 0.124181 -0.021219 -0.080963 -0.055424 -0.037808 -0.008322 0.014969 -0.048587 0.082539 0.124183 0.153525 -0.038512 0.082419 0.083216 0.116230 -0.006100 0.009184 0.029233 0.112146 -0.000833 0.002069 0.012444 0.004775 -0.152061 0.071402 -0.056924 0.048303 -0.098410 -0.035858 0.162501 -0.027104 0.024263 0.071314 -0.119752 0.011531 0.014045 -0.061026 0.070568
олег -0.221728 -0.140680 0.125841 -0.056935 -0.051374 -0.079357 0.136468 -0.028865 -0.292013 -0.150084 0.018732 0.035540 -0.038017 0.030248 0.132511 0.018818 0.410146 0.158189 0.198129 0.108273 -0.178652 -0.227049 -0.158678 0.098907 0.001862 -0.120489 -0.117529 0.061996 -0.088819 -0.018199 0.037311 -0.082696 0.103519 -0.149788 0.057788 -0.022585 -0.094773 -0.221651 -0.065354 0.083313 0.089364 -0.087730 0.228545 0.074681 0.021122 0.143147 -0.040134 0.130135 -0.156541 -0.218725
президентом -0.020538 -0.003978 0.156441 0.050510 -0.070320 0.164213 0.048564 -0.059135 0.120261 -0.144858 -0.062573 -0.074549 0.091582 -0.063067 0.031713 -0.223660 -0.062007 -0.039269 -0.056215 -0.059155 0.216089 0.170735 0.107771 -0.119860 0.004252 -0.101544 0.145427 -0.107985 0.098773 0.037224 0.119493 -0.073103 0.002176 0.080423 0.046479 -0.106055 0.127362 -0.001136 -0.026635 0.006427 -0.114275 0.099222 -0.112020 0.030290 -0.036490 0.020143 -0.093701 -0.092608 0.045930 -0.124183
сборник -0.086427 -0.079840 0.117984 -0.010514 -0.059254 -0.035758 0.093860 -0.037724 -0.138565 -0.117153 0.028225 0.033545 -0.009340 0.026845 0.054395 -0.003936 0.217150 0.096893 0.096370 0.101095 -0.049306 -0.105751 -0.067608 0.056157 -0.004413 -0.094857 -0.070224 0.027969 -0.094678 -0.016389 0.064985 -0.065037 0.027033 -0.111079 0.061031 -0.045549 -0.047722 -0.129786 -0.074679 0.024900 0.035215 -0.078072 0.106321 0.033519 0.028196 0.120544 0.000387 0.047459 -0.143125 -0.130092
свергнут 0.136372 0.007170 0.108822 0.063717 0.009594 0.294971 -0.005950 -0.062320 0.226415 -0.191412 -0.002329 -0.145320 0.252838 -0.086710 -0.079114 -0.237478 -0.178903 -0.114070 -0.115796 -0.050773 0.284260 0.284290 0.154476 -0.158755 0.056358 -0.117517 0.259589 -0.120799 0.151473 0.080871 0.120398 -0.108245 -0.030811 -0.028254 0.032060 -0.160944 0.167478 -0.002017 0.027958 -0.147246 -0.053822 0.071121 -0.235774 0.007149 -0.027467 -0.025086 0.102683 -0.030912 -0.010200 -0.053723
совета -0.264663 -0.101094 0.055796 -0.030497 -0.056079 -0.177541 0.070799 -0.016824 -0.300531 -0.052594 0.050560 0.039053 -0.114801 0.079112 0.124271 0.139068 0.368048 0.176214 0.162171 0.108660 -0.202029 -0.244914 -0.143833 0.149335 -0.029246 -0.089927 -0.177244 0.079137 -0.143346 -0.042736 -0.012817 -0.059028 0.118750 -0.134795 0.017253 0.062650 -0.126791 -0.133527 -0.080680 0.116631 0.082907 -0.150541 0.203064 0.016125 -0.042412 0.197603 -0.088277 0.125202 -0.123786 -0.141414
сша -0.104453 -0.015318 0.059884 -0.011527 -0.083985 -0.042865 0.103679 0.033955 -0.082369 -0.002035 0.078854 0.080577 -0.036527 0.004685 0.077054 0.070183 0.216330 0.087814 0.089133 0.009131 -0.019709 -0.066922 -0.042946 0.057750 0.049073 -0.005810 -0.018440 0.080901 -0.035306 0.011177 0.096054 -0.016883 0.081783 -0.009427 0.074162 -0.030218 -0.033590 -0.093422 -0.031452 0.073292 -0.004066 0.022261 0.121293 0.039493 0.015714 0.009237 -0.088374 -0.021995 -0.086787 -0.090311
1998 0.035500 0.028061 0.099229 0.036959 -0.084617 0.144810 0.037359 0.019389 0.135392 -0.053875 0.028199 -0.005655 0.113629 -0.044159 0.013280 -0.097471 -0.023248 -0.013190 -0.017676 -0.065767 0.118701 0.140091 0.111188 -0.076041 0.031545 0.003583 0.131140 -0.034611 0.076001 0.015345 0.117253 -0.030178 0.011267 0.056589 0.058417 -0.124418 0.114813 -0.026856 0.007118 -0.034323 -0.050602 0.131507 -0.054776 0.004235 0.010399 -0.069736 -0.065531 -0.066650 0.016177 -0.058071
2012 -0.136692 0.002719 0.035035 0.046634 -0.097687 -0.002088 0.051813 0.061125 -0.009409 -0.005219 0.008688 -0.012745 -0.076359 0.008025 0.008266 -0.010370 0.050842 0.016159 0.052050 -0.010618 -0.048004 -0.068656 -0.033233 0.046847 -0.013721 -0.005172 -0.037449 -0.023084 0.009305 -0.023484 0.069871 0.066264 -0.005129 0.128595 0.014155 -0.006335 0.028613 -0.004286 -0.025952 0.064571 0.019741 -0.025077 0.025407 0.007704 -0.039917 0.057058 -0.171340 -0.020624 0.051857 -0.113317
7 -0.240046 -0.004388 0.162243 0.034975 -0.245233 -0.008857 0.155990 0.177226 -0.102625 -0.068677 0.113530 0.062978 -0.073904 0.043999 0.090952 -0.042226 0.273565 0.146678 0.211092 -0.012162 -0.108627 -0.143452 0.002943 0.136099 0.038071 -0.034588 -0.054113 -0.036611 0.043019 -0.059544 0.257566 0.044182 0.073719 0.165527 0.110803 -0.032579 0.037005 -0.104907 -0.079368 0.170558 -0.018329 -0.038827 0.146141 0.020671 -0.026410 0.070704 -0.354802 -0.062795 0.000322 -0.251946
вгбил -0.369311 0.008047 0.044541 -0.108829 -0.055843 -0.292163 0.071217 -0.010524 -0.280575 0.026561 -0.012573 0.105013 -0.181634 0.066762 0.158255 0.144270 0.331786 0.182155 0.177401 0.062753 -0.265271 -0.341823 -0.219320 0.137784 -0.090603 -0.099899 -0.180924 0.085432 -0.104835 -0.073807 -0.108561 0.015335 0.116212 -0.017633 0.021359 0.167845 -0.162780 -0.073524 -0.114447 0.217320 0.058021 -0.196871 0.245935 0.058996 -0.036208 0.221184 -0.174359 0.043392 -0.034965 -0.143213
гаити -0.265647 -0.009529 0.170760 0.078273 -0.075851 0.033003 0.054751 -0.029386 -0.082584 -0.175896 -0.001694 -0.053403 0.031865 -0.033420 0.108443 -0.109691 0.220054 0.099158 0.052852 0.033979 0.053909 -0.038637 -0.066873 0.012387 -0.043885 -0.185085 0.033696 0.002057 0.045306 -0.008981 0.065277 -0.100469 0.069637 0.007386 0.077193 -0.031488 0.035397 -0.100964 -0.111176 0.138535 -0.013250 -0.032890 0.049792 0.098672 -0.140523 0.218152 -0.108155 0.003752 -0.059247 -0.215384
главы -0.213803 -0.084396 0.087963 -0.015195 -0.046241 -0.041961 0.101586 -0.067495 -0.156163 -0.143611 -0.018750 -0.049809 -0.031406 0.050655 0.040257 0.067185 0.205352 0.105623 0.133607 0.086233 -0.079699 -0.139157 -0.111668 0.081862 -0.028865 -0.134885 -0.009079 0.001735 -0.062291 -0.005355 -0.061282 -0.081442 0.058073 -0.158243 0.035711 -0.000762 -0.063564 -0.120698 -0.040437 0.023488 0.096993 -0.113981 0.078187 0.030933 -0.042567 0.221152 -0.000226 0.072536 -0.108749 -0.130946
день -0.201365 -0.056454 0.097886 -0.011496 -0.074099 -0.050914 0.152671 0.024157 -0.166137 -0.099846 0.060015 0.053240 -0.013425 0.020536 0.137002 0.063651 0.305415 0.131729 0.129766 0.037744 -0.058751 -0.137512 -0.078551 0.093587 -0.003713 -0.033724 -0.023735 0.088328 -0.063291 -0.015712 0.116172 -0.018355 0.105087 -0.031987 0.055454 -0.036329 -0.037349 -0.123144 -0.049767 0.096074 0.028888 -0.001611 0.156154 0.024865 0.025012 0.070552 -0.100562 -0.004080 -0.107935 -0.156356
ж 0.150495 -0.110080 -0.072126 0.036857 0.162962 0.047009 -0.158770 -0.126731 -0.005350 -0.085335 -0.138367 -0.170273 0.053162 0.015387 -0.093680 -0.096720 -0.245298 -0.076667 -0.095329 0.090045 0.051780 0.019886 0.007381 -0.036270 -0.053727 -0.101737 0.019920 -0.136801 -0.024016 0.070219 -0.156569 -0.036998 -0.049689 -0.158601 -0.047270 -0.019188 -0.007714 0.071979 -0.021023 -0.145223 0.060632 -0.168519 -0.204318 -0.020775 -0.069069 0.142251 0.204161 0.163145 -0.038802 0.072045
институт -0.036861 -0.008859 0.120654 -0.020304 -0.077301 0.020046 0.119515 0.044004 -0.022323 -0.078106 0.076002 0.066798 0.071329 0.004920 0.041240 0.019050 0.197415 0.085639 0.120781 0.027576 0.002146 0.025840 0.007905 0.005345 0.076634 -0.006141 0.044491 0.072378 -0.013982 0.006297 0.094502 -0.023210 0.043927 -0.046855 0.042082 -0.069869 0.005476 -0.098489 -0.003152 0.043238 0.005947 0.079030 0.124416 0.025461 0.029623 0.005152 -0.013468 0.003008 -0.126138 -0.104192
любовь -0.048614 0.085358 -0.091282 -0.054402 -0.008983 -0.124596 -0.003507 0.016618 -0.001080 0.159515 0.070547 0.141241 -0.099447 0.008386 0.062850 0.128213 0.048408 0.020170 0.025723 -0.077378 -0.080508 -0.027689 -0.041488 0.030554 -0.000915 0.109563 -0.045797 0.114481 -0.023572 -0.044045 -0.008744 0.093624 -0.005013 0.099172 -0.014887 0.103302 -0.049308 0.042159 0.025225 0.094617 -0.009682 0.071825 0.084870 -0.035385 0.024828 -0.112721 -0.091324 -0.060230 0.048746 0.011759
мать -0.093185 0.069937 -0.087499 -0.038653 -0.066885 -0.091926 0.069090 0.081092 -0.044446 0.118983 0.029086 0.135647 -0.083601 -0.076087 0.082317 0.110890 0.081143 0.083747 0.032789 -0.033232 -0.022917 -0.031397 -0.041423 0.056836 0.044093 0.016418 -0.056593 0.135632 0.017066 -0.121322 0.063053 0.010497 -0.024517 0.075319 0.063623 0.011339 -0.086513 0.006247 -0.027840 0.108469 -0.025468 0.091034 0.023143 -0.037893 -0.007372 -0.083677 -0.095628 -0.098239 0.049344 0.017809
министр 0.052454 -0.128798 0.059628 -0.013338 -0.044313 0.037287 0.092479 -0.065194 -0.091219 -0.152836 0.028887 -0.052568 0.065325 0.037150 0.004807 -0.006524 0.107071 0.039222 0.052578 0.065139 -0.034959 -0.002509 0.036391 0.017244 0.041651 -0.044099 -0.010143 -0.003532 -0.061737 0.015145 0.045540 -0.073265 0.019332 -0.244323 0.009179 -0.047333 -0.018042 -0.086237 0.001372 -0.039226 0.023886 -0.072389 0.039785 -0.031485 0.059360 0.061401 0.108321 0.038542 -0.151708 -0.037440
мне -0.077196 0.081252 -0.020988 -0.028205 -0.052678 -0.092929 -0.005190 0.023717 -0.004920 0.114953 0.055198 0.138739 -0.097348 0.034680 0.051985 0.055828 0.075309 0.029212 0.022589 -0.063770 -0.035989 -0.048122 -0.037717 0.034893 0.012391 0.098244 -0.059066 0.073631 0.014226 -0.052317 0.013839 0.071602 0.019137 0.175802 0.035379 0.076152 -0.032267 0.051439 0.023265 0.138950 -0.040706 0.098950 0.079030 -0.003525 -0.002862 -0.068144 -0.141247 -0.098545 0.076632 0.015655
начале 0.105873 -0.040538 0.167801 0.061007 -0.041857 0.120232 0.139687 0.016017 0.040638 -0.180301 0.000823 -0.055125 0.156277 -0.052781 -0.107995 -0.042191 0.002432 -0.025866 -0.009091 0.004859 0.097842 0.105933 0.085797 -0.004163 0.018770 -0.039485 0.104573 -0.073301 0.024365 0.028945 0.118369 -0.055364 0.012409 -0.075801 -0.008451 -0.133961 0.056595 -0.129423 -0.010162 -0.076365 0.014756 0.028245 -0.050082 0.030143 0.041218 -0.008548 -0.002525 0.030831 -0.114265 -0.064195
начал 0.067464 -0.002770 -0.013022 -0.038607 -0.053818 -0.025672 0.041659 0.049294 -0.012346 0.032144 0.027912 0.029435 0.018642 0.026175 0.001403 0.030002 0.046780 0.012990 0.022780 -0.054467 0.035739 0.040140 0.039286 -0.007003 0.007430 0.047809 0.035240 0.035490 0.016414 0.035523 0.050439 -0.015712 0.013149 -0.018197 0.012797 -0.018632 0.002667 -0.045275 0.043531 -0.010902 -0.006730 0.081080 0.010595 -0.001829 0.041333 -0.047279 -0.020891 -0.016436 0.000267 0.000899
она 0.223670 0.096353 -0.146194 -0.046455 0.045756 0.001833 -0.062838 0.048436 0.157000 0.171792 0.066703 0.097878 0.006668 -0.039278 -0.077500 0.038896 -0.178980 -0.108088 -0.072726 -0.135603 0.104330 0.173285 0.109572 -0.069404 0.049819 0.191835 0.060016 0.039097 0.068749 0.014598 0.013428 0.075655 -0.049729 0.145952 -0.021862 0.031516 0.048436 0.095637 0.103234 -0.007034 -0.084611 0.193359 -0.059751 -0.024499 0.073019 -0.280956 -0.008043 -0.116904 0.055039 0.165470
первым -0.055211 0.051072 0.015922 0.010497 -0.063282 0.064378 0.036800 0.006313 0.065688 0.000408 -0.006697 0.017820 0.011070 -0.040940 0.060292 -0.062761 -0.010521 0.003959 -0.035189 -0.057368 0.082612 0.087766 0.018635 -0.077088 0.000464 -0.024793 0.034717 0.006128 0.044036 -0.024029 0.082474 -0.008273 0.013340 0.064997 0.046171 -0.033764 0.034989 -0.003651 -0.017322 0.027573 -0.042373 0.071921 -0.041389 -0.017747 -0.028229 -0.038411 -0.067012 -0.034156 0.039378 -0.029009
песни 0.094294 0.110539 -0.084346 0.010944 -0.013314 0.028012 -0.041189 0.045932 0.119187 0.133319 0.012644 0.061142 -0.029495 -0.048776 -0.035845 0.009266 -0.140364 -0.065885 -0.050311 -0.134189 0.066994 0.130291 0.057861 -0.067825 -0.010265 0.108879 0.022465 0.031219 0.076301 -0.020890 0.032325 0.078868 -0.033733 0.159911 -0.005626 0.026336 0.030629 0.101168 0.062977 0.034722 -0.053498 0.156130 -0.077819 -0.020068 0.020434 -0.164287 -0.060431 -0.115616 0.110083 0.098495
писателей -0.219140 -0.050838 0.097341 0.019123 -0.060062 -0.071028 0.066423 0.052161 -0.161352 -0.078058 0.005228 0.016367 -0.055249 0.011747 0.099330 0.023194 0.259883 0.117585 0.033117 0.140138 -0.070466 -0.118361 -0.080887 0.056781 0.006072 -0.085324 -0.036528 -0.001933 -0.029823 -0.016894 0.046014 -0.113531 0.040668 -0.115278 0.041001 -0.068313 -0.062875 -0.082948 -0.078152 0.074541 -0.007469 -0.090027 0.070903 0.050354 -0.019533 0.147585 0.021121 0.065242 -0.096355 -0.114293
позже 0.102487 -0.033613 -0.036090 0.028625 0.071414 0.055562 -0.084092 -0.048891 0.064543 -0.019221 -0.033182 -0.053266 0.038241 0.014749 -0.051446 -0.067154 -0.102704 -0.056345 -0.061920 0.014538 0.023763 0.055635 0.035506 -0.016657 -0.024179 -0.005280 0.034693 -0.072538 0.051145 0.025796 -0.067379 0.009508 -0.036746 -0.032146 -0.055201 -0.002000 0.019422 0.039917 0.036399 -0.077354 0.022763 -0.030470 -0.095633 0.007628 0.001726 0.004521 0.107890 0.053679 0.005014 0.054457
